4 25
woman 0.6181452792990159 0.8767856643919834 0.5905227757029452 0.05879891573260421 0.5108995127352138 0.06135840332893017 0.1701513412971598 0.6683520620446336 0.03114778548275976 0.16059634962943314 0.16522201197487152 0.9647402515002323 0.4149637306295181 0.30143543405543494 0.9298615754335161 0.9254562792567425 0.7391762634213666 0.007083833095596015 0.8446954159644615 0.337603120903166 0.9733298462225081 0.9257486825381277 0.7006990571581987 0.4608982713932598 0.01983307406483914
man 0.5620631460636143 0.5338906146489096 0.08526956949721531 0.555564593559978 0.10936024952819534 0.5584192148251074 0.04970267046809884 0.9315293362834138 0.6414814174598082 0.9240900852769394 0.7346174651551443 0.3078755453753369 0.89252751015822 0.6839296121534654 0.6301367702005883 0.04704333556182616 0.46079563599239237 0.3400166228811441 0.7029038322543423 0.9337537066064565 0.6701124626460149 0.5644375837983737 0.8645133201749022 0.6280009123766013 0.26500157638546695
boy 0.22828585163072246 0.9909753308133389 0.47274607988334894 0.1782217482749625 0.6628959627944537 0.11569067697027613 0.6158863909156628 0.6944790009253213 0.299665766582635 0.06373863774165867 0.9114447541608361 0.8717793422178245 0.5080719470641145 0.7598629529537992 0.5794313650451159 0.07547486859521357 0.38054804336908776 0.3557364598981355 0.6942963848492854 0.4123554637962875 0.34890392706771745 0.13223204394082277 0.8804040986035168 0.2635053706576679 0.3822413223835188
girl 0.9867380903190581 0.37126910317387274 0.4099556583550099 0.8379224377511785 0.9553894645387216 0.08741888625749239 0.46143480128240777 0.5542169063828131 0.10536333428339917 0.10963308157076201 0.1876924054147403 0.2877351308260161 0.6494465923526449 0.8937538333589603 0.9667796823960515 0.0652950459259325 0.7123912458994806 0.2753645419718044 0.06264215948248797 0.17065938745983644 0.9321046437772553 0.8754142020345059 0.49618678998564025 0.65896154981009 0.7553351020098608
