95 300
  0.015751407 0.05155158 0.014868247 0.014340382 -0.05337477 0.02701763 -0.0110256905 0.053416952 -0.07143866 0.01718345 -0.06229586 0.04342354 0.04719142 -0.04028745 -0.10815293 -0.00018362614 0.08542282 0.029416895 -0.0142549 0.028834522 0.08643198 0.024576722 -0.0007978344 0.07019623 0.050045624 0.031717848 -0.047665432 0.067605756 -0.03850629 -0.01822701 -0.0029682575 -0.028547598 0.031430915 0.05370761 -0.0576275 -0.110953815 0.020713264 -0.014938624 -0.018768774 -0.014518161 -0.006183832 -0.0060661826 -0.02539037 0.011501806 -0.041228835 -0.017866373 -0.0006649776 0.013705422 -0.008062972 0.0029181016 0.0015354533 -0.015506012 0.020728812 -0.008405233 -0.0077769393 0.013958875 -0.010478974 -0.0037178018 0.009897404 -0.023363702 -0.020634964 -0.02286297 0.020195568 0.011374162 0.008525229 0.024428844 0.037481494 0.05960434 -0.009041724 -0.038258743 0.018354252 0.018937806 -0.040734608 -0.00047482358 -0.018881468 -0.0051438888 -0.0038227537 -0.014376841 0.02166457 -0.03478249 0.0036488234 -0.044108264 0.029845664 0.009405692 0.017087365 -0.030372862 -0.005151143 -0.032798123 0.022117725 0.0034662357 -0.03612282 -0.02576856 -0.014466031 -0.015128875 -0.008374206 0.01786534 -0.005053128 0.002152123 0.00840192 -0.013254636 0.0056156805 -0.0010118511 -0.08327878 0.03433601 -0.037808582 -0.0018633822 -0.022680437 0.031503167 0.061937876 -0.026512353 -0.017458007 0.011433819 0.028659265 -0.008786119 0.049576398 0.056067187 -0.013439824 0.00047466333 0.004589311 -0.005286377 -0.034141578 -0.052978687 -0.011234446 0.022886544 -0.029258551 -0.010100836 -0.060549483 -0.024704542 0.031039363 0.009900846 0.070486434 0.064151525 0.02046924 0.02259115 -0.0062903827 0.050821137 0.019661987 0.018806463 0.011088622 0.047658063 0.0182023 0.0019970892 0.029816253 0.013061509 -0.029545892 0.010688699 0.04918657 0.04917956 -0.015658274 -0.0004393615 0.03847866 0.0020609943 0.041841153 -0.050930943 0.03146451 0.005604747 0.021245714 -0.049248174 -0.014958255 0.041990418 -0.03233876 -0.048644528 -0.04399623 0.02571106 0.0016673375 0.0073449383 -0.036104627 0.022987582 0.006153211 -0.009729094 0.0234171 0.007638629 0.010775251 0.0028313769 -0.014054763 0.051000185 0.018523958 0.0030395447 0.015180068 -0.0072869393 0.0039775954 -0.015840229 0.0076616346 -0.0059030517 -0.023494385 -0.035333402 0.0073787468 -0.011668941 -0.013730175 -0.011478408 -0.008124594 -0.0024784936 -0.015839947 -0.024113797 -0.0008547697 -0.061679192 0.008160146 0.02118504 -0.008275371 0.0045363237 -0.03656561 -0.019826274 -0.015108513 -0.02855356 0.03616708 0.012999407 0.064394 0.013391002 -0.011555373 -0.029979954 -0.03457261 0.009389976 -0.021580378 -0.021420807 -0.004920673 -0.045107704 -0.036215648 -0.020688986 -0.015799228 -0.032000422 -0.016823243 -0.031024838 0.031360283 -0.023833254 -0.000121522695 -0.03141975 0.030546736 0.028682875 0.011137186 0.0976576 -0.056485046 0.0016729609 0.040033348 -0.035761934 -0.013172756 -0.05273293 0.07774066 -0.006957407 0.058582824 0.020715058 -0.119561136 0.008407616 0.001711937 0.020790538 0.034236882 0.002824522 0.041983392 -0.05554793 -0.03281394 0.019765286 -0.075924404 -0.0056127547 -0.090471506 -0.024407966 -0.021197284 -0.022244293 -0.034435585 -0.016637538 -0.0060908664 -0.041629378 -0.0540712 -0.019848928 -0.009522176 -0.034091376 0.03121105 -0.0021955548 -0.015900765 -0.01363623 -0.05807113 0.012867204 0.06083892 -0.009020793 0.045832872 -0.046069186 0.03127493 0.024432251 -0.04412972 -0.005699634 0.023312787 -0.02653973 0.046924442 0.04131565 0.04850384 0.054816227 -0.045548987 0.031616118 0.04404885 -0.044031307 -0.03447824 0.018659964 0.031560887 -0.0047959476 0.13647598 0.16737269 -0.38387284 -0.77987534 0.036716413 -0.26540637 0.8864239 -0.07726397
e 0.006143946 0.09183384 -0.0044606472 0.026239153 -0.05423164 0.084140494 0.06287582 0.05542304 -0.06804828 0.038519394 -0.05883678 0.0047489945 0.012782195 -0.015146367 0.0024805088 -0.057290502 9.826466e-05 -0.04095823 0.027726853 0.054480787 0.037830263 0.019438956 -0.017435754 0.08431425 0.003184292 0.023157101 -0.069846325 0.021210669 -0.056877658 -0.01155422 -0.021731058 0.006838455 0.08779471 0.095472574 -0.11786802 -0.112683594 -0.026684405 -0.019103033 -0.014950239 -0.04054071 -0.032081448 0.046811104 -0.025340725 -0.008141899 -0.06407687 0.012502289 0.028598389 0.035677645 0.013075193 0.03998706 0.022015413 0.028484235 -0.0059551247 0.024996243 0.029310638 0.034790702 -0.03553646 0.016758379 0.0050983243 -0.048889022 -0.020282678 -0.039893888 -0.01970615 0.052365683 -0.011782087 0.09542053 0.0627651 0.030598784 -0.003975341 -0.03727598 -0.012727991 0.020575609 -0.106556445 -0.057673883 -0.07247912 -0.0112507595 0.0018419278 -0.012097297 0.040755667 -0.0015280942 0.024766283 -0.06899368 0.031729296 0.017796202 -0.0072186664 -0.0047397995 -0.07050488 -0.040591728 0.022877779 -0.0028425818 -0.037754696 -0.0556235 0.0045541776 0.0027994034 0.018527362 -0.02641378 0.006101615 0.0073173083 0.02418249 -0.038122647 0.012363167 0.0017836557 -0.05093937 0.017012743 -0.00090518006 0.013878654 -0.0035282623 0.026905771 0.040733285 -0.036634583 -0.007106785 0.00592903 0.015267586 0.011744178 0.037645396 0.013317146 0.023850117 0.016553663 -0.021246402 0.022389593 -0.03362816 -0.04733441 -0.0042962153 0.025851035 -0.02395681 0.03312336 -0.012595185 -0.0031766915 0.028114311 0.020733291 0.042319953 0.046333365 0.030700436 0.0072105816 0.01432005 0.016780412 0.003553738 -0.020993656 -0.012263329 0.011398926 -0.01115867 0.0013374835 0.006887893 0.037469063 -0.024851283 0.004238285 0.026190072 0.0315715 -0.013823425 -0.02267403 0.037855532 0.012829693 0.012646278 -0.07412647 0.04467898 0.030708209 0.020974975 -0.0295285 0.013477881 0.057452776 -0.028170606 -0.007210752 -0.0451277 0.012032326 0.02018405 0.0028101972 -0.04105398 0.002261586 -0.05008922 -0.00031425484 0.032715756 0.027179245 0.035407055 -0.01571664 -0.014268777 0.11799246 0.021934824 -0.0006884998 0.049317896 0.003135063 -0.045396004 0.0021838385 -0.015441889 -0.0088272635 -0.004946737 -0.08405527 0.022325844 -0.025850626 0.012397948 -0.0076834406 -0.007344113 0.0075333854 0.021590376 -0.044488966 -0.012269862 -0.09876216 0.015509126 0.08175489 -0.025353791 0.0034711645 -0.04319429 -0.050634984 0.0075114737 -0.03465788 0.040958993 -0.0023489473 0.06663825 -0.004977648 -0.025726603 -0.010835213 0.024136554 -0.0025734634 -0.008911463 0.019485015 0.009929593 -0.03300447 -0.04501102 0.022919098 -0.0078546675 -0.035052363 -0.038032614 0.010003842 0.034365557 -0.02278268 0.020496938 -0.02426349 0.019693915 0.021919092 0.0044838805 0.111989446 -0.056762066 -0.029044107 0.03027578 -0.03901387 -0.016904179 -0.048637655 0.07718132 -0.0041308394 0.029908165 0.05058717 -0.117264844 0.009484912 -0.015677879 0.018536743 0.04230557 0.009897826 0.03416521 -0.070668794 -0.050407596 0.001299006 -0.07534131 -0.012652911 -0.06422327 -0.03810984 -0.023315279 0.019287765 -0.022562183 -0.053939294 0.014657226 -0.055269662 -0.019238055 -0.0077793202 -0.06886654 -0.02573707 0.0036616356 0.0060503907 -0.031577017 0.0064219157 -0.054412182 0.013593762 0.076524794 0.009978614 0.06556536 -0.0699532 0.027059933 -0.0036141246 0.012070396 -0.04939564 0.030078877 -0.013685918 -0.010622007 0.022771265 0.04583279 0.040588047 -0.004394299 0.020471089 0.030527173 -0.04549431 -0.024083553 0.042606592 0.011037156 0.0052522947 0.10636624 0.15315033 -0.448004 -0.8485288 0.04485442 -0.24143994 0.89528537 -0.16956113
t 0.016698044 0.06789448 0.096146904 -0.030155994 0.010681193 0.07326175 -0.034477975 -0.01905547 -0.091942206 -0.028664425 -0.03662448 0.10045114 0.02387232 0.003882049 -0.10088547 -0.02978245 0.05439455 0.008411679 0.012284363 0.009790684 0.06398769 0.0035104933 0.022653664 0.06828089 -0.017836364 0.07600624 -0.13059777 0.075679414 -0.033042796 -0.0012515144 -0.013066428 0.014267127 0.039742902 0.04498987 -0.069827445 -0.073989235 0.032064535 -0.011819233 -0.0129157845 -0.049390137 0.02156705 -0.023860442 -0.048074335 -0.034795225 -0.02816556 0.00093589386 0.00024197658 0.031113049 0.07198998 0.05123878 0.048034612 0.062200736 -0.020913668 0.025080282 0.037909135 0.08418731 -0.029920662 0.00094386 -0.015279974 -0.05571973 0.000876694 -0.045324713 -0.010367261 0.07358934 -0.037414018 0.022670738 0.032276202 0.011425225 0.025336575 -0.020533662 -0.044256095 0.0073004733 -0.09210865 -0.036065202 -0.06903768 -0.0078503825 -0.012407804 -0.029740507 0.04203196 -0.008896361 0.017814334 -0.015217531 0.031092841 0.017029213 0.00955798 -0.048534412 -0.024490565 -0.05230973 0.04173922 0.0070749247 -0.05721542 -0.04265693 0.01111618 -0.03289693 0.012164726 -0.047553707 -0.017485065 0.011903634 0.034392096 -0.035585467 0.04842971 -0.053029485 -0.0918656 0.06024071 -0.03767914 0.032529548 -0.005046848 0.054705806 0.029374423 -0.016722798 -0.0010731952 0.024593433 0.059480567 0.045239326 0.055604845 0.08143224 0.036590505 0.009605419 -0.0044024484 0.0066381884 -0.04028936 -0.06521434 -0.006685884 0.03440073 -0.05403664 0.016348192 -0.04814951 -0.0077654216 0.05176646 -0.0026390993 0.018190114 0.075369455 0.04294434 -0.0010264537 0.002775785 0.033541035 0.0005314367 0.0048124483 -0.009518535 0.030077608 0.029769449 -0.01938594 0.027204873 0.04972245 0.008646218 -0.014797376 0.010113354 0.03541415 -0.016031327 -0.003044179 0.05502418 0.0028017468 0.029049672 -0.048207875 0.06946912 0.029143678 0.025477722 -0.01081708 -0.0119128125 0.044180386 -0.010184921 0.014654493 -0.03374184 0.0052611628 0.033169307 -0.01638225 -0.029251324 0.0037124432 -0.020462494 0.0035666758 0.0034118786 0.01169531 0.0021141658 -0.015703516 -0.0022252384 0.038475793 -0.004191783 0.0041042697 0.07238464 -0.00043704474 -0.023911277 0.0114307245 -0.011240995 -0.011496963 0.0135334125 -0.0404359 0.01787783 -0.03251204 -0.007280217 0.02374191 0.0065324893 -0.000484687 0.004595108 -0.023781046 0.0012624828 -0.06477583 0.005748957 0.06448746 -0.025190849 0.0062411902 -0.061369132 -0.0055376594 -0.012829743 -0.0029983933 0.02705548 0.024538957 0.05776766 -0.0022613134 -0.03961484 -0.006125445 0.011264585 0.018297827 -0.013757838 0.006393794 0.008444842 -0.044383105 -0.03601407 0.019855045 0.0075784405 -0.033902876 -0.043306448 -0.017034547 0.019836994 0.005399165 0.018025856 -0.042725448 0.046428576 0.013966046 0.016136587 0.075843886 -0.028591797 -0.016762512 0.011906717 -0.047498345 -0.021471165 -0.030313581 0.09497444 -0.006446915 0.035770636 0.052749097 -0.11786229 0.01701119 -0.013025572 0.022511085 0.048723754 0.00023011846 0.058637038 -0.059609972 -0.0343307 0.013473445 -0.07944477 -0.0330682 -0.092409045 0.014623503 -0.034313012 -0.006699435 -0.034595292 -0.04463207 0.02860498 -0.043847 -0.018824914 -0.039476044 -0.07605944 -0.02048396 0.037749972 0.008814712 -0.012546971 -0.010268194 -0.05845462 -0.004768311 0.05187017 -0.005504683 0.015802676 -0.027023034 0.040114112 -0.028865134 0.026728196 -0.042957384 -0.0046279095 -0.027921738 0.03358086 0.020310672 0.006293689 0.0053029847 0.018445868 -0.011534408 0.053538937 -0.028935686 -0.033268057 0.039321855 0.020691846 -0.013998944 0.07163299 0.14660674 -0.48622346 -0.8864269 0.059240364 -0.21141247 0.8644026 -0.12083362
a 0.0036546923 0.08667842 -0.019003628 -0.00517824 -0.024176639 0.027758537 0.059278578 0.068840034 -0.090391256 -0.016358469 -0.07227006 0.03189504 0.036400914 0.072835654 -0.012757374 -0.01865976 0.047611393 -0.029327992 0.07281126 0.08791376 0.081236824 0.009660641 0.010990735 0.04813102 0.0707315 0.034685757 -0.13082445 0.017641015 -0.07546192 -0.026233874 -0.005968288 -0.02080747 0.012831588 0.10906337 -0.068437524 -0.068962954 -0.036405887 0.028825944 0.021475634 -0.043679696 -0.018258814 0.07260948 -0.017720329 -0.03888535 -0.020928629 -0.036186393 0.013112157 0.018327994 0.031024018 0.057820607 0.045129355 0.06248062 0.023552319 0.028311286 0.017875591 0.017691294 -0.03195919 0.03714438 -0.013633931 0.0062541086 -0.0037493848 -0.023022667 -0.012927064 -0.011287222 0.018994581 0.09584229 0.07566652 0.047641277 0.001677859 -0.010584021 0.004511559 0.032386888 -0.06984426 -0.02544487 -0.04366917 -0.00012073618 -0.019363072 0.014444496 0.011867703 -0.034448694 0.0397347 -0.038510643 0.026522031 0.008321983 -0.012162041 -0.01485489 -0.0615437 -0.021353481 0.023616308 0.0003349044 -0.08335146 -0.05691009 0.01103255 -0.0052761477 0.027746398 0.009509487 -0.014297031 -0.008443019 0.030187843 -0.028691145 0.0667591 0.023198348 -0.07028944 0.02546082 0.01872757 0.01597098 0.0060372213 0.0036015513 0.052222244 -0.028365964 -0.034191947 0.032722346 0.015980816 0.008039364 -0.008522669 0.026711766 0.015831446 0.023561707 0.004021042 0.0016593393 -0.021274138 -0.042262495 -0.026659688 0.03380767 -0.009927596 0.025336575 -0.0211963 -0.010067318 0.01816002 -0.0060066823 0.026779892 0.045621637 0.027097512 0.00057125126 0.000359411 0.0024539465 0.015770676 -0.03018456 4.427967e-07 0.029236782 -0.0032583377 -0.011727997 0.028387392 0.015299633 -0.03381943 0.015952185 0.08600224 0.06446819 -0.010615425 0.013321272 0.05070329 -0.024252348 0.03760382 -0.049716484 0.054514404 0.032006297 -0.0006104137 -0.008038911 -0.027287314 0.023419416 -0.032673605 -0.02651329 -0.026374338 0.015416716 0.011285822 0.012195301 -0.017594809 -0.011947125 -0.020813813 -0.012539533 0.01770221 -0.004893767 0.045480866 0.009162662 -0.0052491147 0.096223645 0.05541409 0.0006327174 0.0062977653 -0.008777774 -0.025361141 0.022477474 -0.04199461 -0.021309914 0.0020347144 -0.05532572 0.011467801 -0.00703311 0.049696196 -0.0031044101 0.0096957 0.019205999 0.01612831 -0.04979601 -0.019836333 -0.097888924 0.011651637 0.06166202 -0.03145624 0.024552425 -0.04554642 -0.056203455 0.019741582 -0.02530753 0.038901694 -0.018711576 0.050817475 -0.019353898 -0.030110965 -0.0056774095 -0.005816892 -0.006220351 -0.018002149 0.013604967 0.030878678 -0.060091484 -0.030047005 0.006297868 0.0038253623 -0.04994177 -0.030179504 -0.018492306 0.00888402 -0.027249288 -0.003713747 0.004651274 -0.0033861068 0.0067862007 -0.016764492 0.063927874 -0.04044435 -0.007900026 0.026574232 -0.014849714 -0.027278893 0.016600888 0.09012796 -0.027367132 0.033316422 0.025451366 -0.07950322 0.046417493 0.023128368 0.026192252 0.037435297 -0.007622654 0.03672268 -0.09748283 -0.046171576 0.0043954593 -0.097312935 -0.028471854 -0.049204253 0.0026664117 -0.0150300125 0.021261577 0.030269353 -0.0032227323 0.036549784 -0.027694099 0.018703176 -0.0069584628 -0.02176676 -0.029063808 -0.0048341164 -0.031609274 -0.011765965 0.013704554 -0.0681886 0.013447797 0.067225054 0.00056225236 0.04987194 -0.034084726 0.02582653 -0.004703828 0.0056360117 -0.05562205 -0.023629168 -0.050382715 0.04194196 0.08171802 0.040040653 0.0367147 0.0055361404 0.06245315 0.061767794 -0.033682473 -0.039314132 0.067182735 -0.011037027 0.023511682 0.09984337 0.07452309 -0.3962105 -0.8807547 0.10513529 -0.25689933 0.8623441 -0.1410863
o 0.024078038 0.12305872 -0.0074102934 -7.05143e-05 -0.01471033 0.076328106 0.072489664 0.07275366 -0.04629572 -0.043074753 -0.01762473 0.035616435 0.029998552 -0.04217467 -0.0795481 0.027844742 0.013084933 -0.00056942133 0.046024654 0.057646185 0.06798081 -0.0067993896 0.06937302 0.025750222 0.024221692 0.029209033 -0.07977319 -0.0069749206 -0.02403869 0.031267326 0.016754003 -0.038207795 0.061556064 0.09742812 -0.078327045 -0.094888255 -0.00994092 0.004813267 0.026719315 -0.066126056 -0.02155318 0.041203126 -0.023487115 -0.021922555 -0.030251779 -0.08029751 -0.024586331 0.0441159 -0.0072596637 0.040393807 0.035166312 0.011313166 0.040847644 0.054274883 0.025652831 0.036102995 -0.029294383 -0.00785736 0.018886108 0.0034822817 -0.017924339 0.0054653604 0.012042249 -0.013743138 -0.007551176 0.038060598 0.053430114 0.06483298 0.02653054 0.004514079 -0.0048176874 -0.011167763 -0.06258284 -0.034884248 -0.033883445 0.0018723734 -0.0013193691 -0.0025482995 0.027115548 -0.017639214 0.010640817 0.00040732257 0.025366647 -0.011209011 -0.011811485 -0.020115713 -0.009880272 -0.034350906 0.025787603 -0.0060465764 -0.05032553 -0.042901166 -0.00046716363 -0.029242115 0.030633535 0.0069434606 0.025428804 -0.0028160391 0.0077970535 -0.023389924 0.067014895 -0.011594763 -0.066300675 0.04161312 0.009969201 0.01670308 0.01023489 0.05009712 0.036812067 0.00024905318 0.005453006 0.02120571 0.028541066 0.0023692613 0.011638944 0.059226792 -0.006783426 -0.009123019 -0.021717831 0.0003638449 -0.0050666207 -0.041836303 -0.011183074 0.023624223 -0.02752747 0.009503109 -0.035950754 -0.0015196777 0.017336573 0.013176098 0.05853414 0.092011034 0.03405401 -0.004783537 -0.000200864 -0.005910949 0.011671686 0.004518592 0.007860894 0.016976522 0.026448801 -0.035847865 0.028145697 0.016539287 0.010051732 -0.011785475 0.014349198 0.04349645 -0.0089752935 -0.008524115 0.03636757 0.011159019 0.013502 -0.054823942 0.07224023 0.032448854 0.020990407 -0.00760599 -0.019310148 0.024449779 0.00017129794 -0.017624483 -0.048926547 -0.007560922 0.029679965 0.04415743 -0.02906104 0.019694509 -0.0052200784 -0.005157983 0.002325289 0.0032015615 0.049315885 -0.008681871 0.01643076 0.05429852 0.0534803 0.011365417 0.034426328 -0.010327182 -0.022802401 0.026415115 -0.039689098 -0.042810846 -0.007935491 -0.06256258 0.009564417 -0.052221972 0.035074957 0.016313907 -0.00036608017 0.025454957 -0.012634788 -0.07041259 -0.028396094 -0.10059788 -0.0038070874 0.08934921 -0.03917086 0.009569936 -0.022425272 -0.06083956 0.0129259145 -0.023314975 0.055020995 0.005573245 0.08132778 -0.04625031 -0.038050838 -0.02243109 -0.018186288 0.0064351764 -0.0034356366 -0.017354812 0.04013171 -0.051236045 -0.028884517 -0.0034412055 0.0018231354 -0.06663768 -0.03638482 -0.04471594 0.030504543 -0.019275991 -0.015161566 0.0012921286 0.020000532 0.0097775245 0.012034291 0.11406237 -0.027141886 0.0069481926 0.018412085 -0.020364812 -0.0072263563 -0.009619569 0.15430115 -0.0022297066 0.035721138 0.0358765 -0.15067142 0.026685186 0.01825218 0.046020165 0.042053413 -0.0026947795 0.053922653 -0.12883206 -0.02413516 0.023376357 -0.113240115 -0.050417688 -0.09168171 0.029707013 -0.03323499 -0.00026509745 -0.002544793 -0.037840974 0.09911892 -0.03744139 -0.01796623 -0.015253839 -0.07286392 -0.04913909 0.024786053 -0.00011500259 -0.010992267 0.0039842385 -0.058909837 -0.016896855 0.049115125 0.0028130398 0.052594945 -0.027082741 0.026283678 -0.03079797 -0.0043638754 -0.027926344 -0.01971612 -0.052002776 0.027131328 0.10122577 0.04893577 0.0432629 -0.0054608337 0.035851777 0.071432084 -0.035201553 -0.026699027 0.04861851 -0.010787575 0.020019196 0.16216108 0.15801121 -0.45949706 -0.88181055 0.09277976 -0.22899634 0.81394076 -0.17152087
i 0.0022385598 0.06789477 -0.038904183 -0.032872476 -0.050126333 0.07220026 0.10588882 0.052867502 -0.014393304 0.049518004 -0.06369885 0.032414045 0.041702945 0.013487665 0.032615334 -0.0043510557 0.018047411 -0.0019441978 0.023168983 0.09337954 0.046381287 0.04370824 -0.0073036333 0.07210749 0.05404246 0.013783941 -0.11855158 0.055751577 -0.07177564 -0.07836262 0.0047013382 -0.024307152 0.07220723 0.09402341 -0.12551977 -0.097330876 -0.0008027943 -0.0032366016 -0.01803605 -0.03886877 -0.04004341 0.047774214 0.0047973404 -0.004350939 -0.0017640771 0.014558213 0.018649338 0.013794087 0.01714465 0.094943024 0.090159066 0.06298153 0.020694006 -0.001379862 0.024035333 0.02659631 -0.026146317 0.005468556 -0.022424465 -0.014338006 -0.03281704 -0.019642258 -0.00950562 0.0032526648 0.0039745667 0.015731491 0.03623178 0.062941335 0.017328791 -0.04855639 0.00143402 0.0025465423 -0.117272526 -0.044259336 -0.051968843 -0.014898971 -0.023167692 -0.008005325 0.05849119 -0.046539187 0.041406285 -0.054828342 0.07448065 0.05020019 -0.012726186 -0.079072446 -0.09037655 -0.089664236 0.024955506 0.004938151 -0.085649915 -0.0654488 0.034189936 0.0004472168 -0.0020799516 0.008482316 0.024678368 0.01606054 0.0032333897 -0.050507512 0.044950772 8.598637e-05 -0.06060844 0.030279526 -0.014197894 0.020939378 0.0024903817 0.03180553 0.04940286 -0.045448404 -0.023325033 0.0362682 0.014061815 -0.014929058 0.036983386 0.017179284 0.013159681 0.0061153625 -0.009373851 0.0037527657 -0.025202587 -0.021401277 -0.034031007 0.042562585 -0.027612854 0.025274163 -0.04303826 -0.015218779 0.018294664 0.006998563 0.0053655426 0.038301893 0.03119436 0.0148454625 0.02479047 0.016916705 0.04303355 -0.013479795 -0.0059969337 0.042958554 -0.010705356 -0.010875389 0.018098813 0.05806726 -0.033408973 0.018513607 0.04225027 0.036457025 -0.0026859764 0.0034985081 0.04231248 -0.007867435 0.031131154 -0.07887614 0.025631702 0.02490527 -0.0017538762 -0.0063284645 -0.0023643333 0.020572238 -0.020382185 -0.00506666 0.001232757 0.0013496474 -0.018889256 -0.012846069 -0.004238103 0.016234325 -0.010771561 0.0038785348 -0.00013283643 -0.010653215 -0.0067413077 0.010815351 0.007775601 0.005723011 0.045268252 -0.016418114 -0.0064241737 -0.032398097 -0.031648614 -0.007777962 0.008947753 -0.016552985 0.015081568 0.01824395 -0.007091954 0.0061699618 0.036805645 -0.03053336 -0.005796752 -0.0111790225 -0.0064469026 -0.04940709 -0.01935221 -0.09222186 0.0016748422 0.0713018 -0.03768458 0.020315425 -0.06603697 -0.071560524 0.010589097 -0.039172754 0.048281625 -0.010348982 0.09531871 -0.009036802 -0.047555715 -0.012597072 -0.007319522 0.01358814 -0.0004897529 -0.009361311 0.03909158 -0.06238051 -0.060577553 0.022681233 -0.011482993 -0.041700564 -0.062043786 -0.04819551 0.024274308 -0.026941514 0.004223058 0.012629647 -0.008019366 -0.009200198 0.00041729587 0.07603548 -0.0324782 -0.002054178 0.017519483 -0.02972676 -0.019368365 0.014025428 0.11194685 0.0017946139 0.028098864 0.029818142 -0.095110156 0.05211553 -0.010326096 0.018304221 0.06653955 0.015163818 0.04463237 -0.06975267 -0.031754438 0.03320253 -0.09587185 -0.02260571 -0.10481202 -0.028452706 -0.023895938 -0.0014302301 0.0018672223 0.025905613 0.005301884 -0.039043352 -0.010438802 -0.018467471 -0.019966817 -0.022849757 -0.0014421251 -0.020061271 -0.010007477 0.019399894 -0.067045644 0.03798822 0.049795195 -0.026655957 0.052970946 -0.021938043 0.035046093 0.01221899 -0.011710746 -0.028183712 -0.017878627 -0.022040682 0.03339458 0.08574688 0.029802984 0.06240714 -0.019989623 0.039413266 0.059313115 -0.04845488 0.015782818 0.009652473 -0.0042524403 0.0013938146 0.05970187 0.13313597 -0.4634518 -0.84809357 0.024284922 -0.30530652 0.8930309 -0.16405194
n -0.07258604 0.14534746 0.085782275 0.016523212 -0.07649731 0.0007884209 0.0012671553 0.08641756 -0.045090802 0.023872407 -0.05642218 0.014492217 0.08989808 -0.06312166 -0.032298923 0.057572167 0.062463198 0.0022880337 0.020396747 0.06812171 0.03505074 0.00082151307 0.01620893 0.0734874 -0.007335731 0.007245843 -0.04936435 0.032598536 0.008160409 -0.05658639 0.015296533 -0.008998564 0.013264033 0.08557909 -0.045123685 -0.07798302 -0.010229451 0.0077617588 -0.051856663 -0.06980264 -0.046308383 0.0158646 -0.08160147 -0.046939716 -0.04121177 -0.015158164 0.06501122 0.035924923 0.056585625 0.082464255 0.075436704 0.08867577 -0.0044397833 0.004827758 0.033869248 0.039495446 -0.03408699 0.06579316 -0.060128454 -0.024688942 -0.004129286 -0.05215431 -0.040504366 0.0112973945 -0.0008279816 0.010284141 -0.037570927 0.016336579 0.019472562 -0.03098361 -0.0026347963 0.06021137 -0.058351055 -0.0137924375 -0.05013992 0.0027508996 -0.06822005 -0.013296424 0.04004981 0.0013391871 0.025281468 -0.06310095 0.036770638 0.007756517 -0.006473822 -0.063772015 -0.03335114 -0.09080578 0.048226763 -0.009896496 -0.050842933 -0.046623282 0.022325128 -0.040937968 -0.009192115 0.0004703326 -0.025877193 0.012081972 0.024252022 -0.03239686 0.013318138 0.018248394 -0.11789904 0.04115112 0.0032610944 0.03750746 0.023306593 0.031704318 0.03300091 -0.02230461 -0.0020832988 0.018080577 0.055160888 0.05014955 -0.008467158 0.05040722 0.0058712005 0.010133321 -0.00020103133 -0.0025279075 -0.026417622 -0.020874256 -0.032992523 0.027518297 -0.020794306 -0.012993609 -0.073839016 -0.021296982 0.037064936 -0.0047475053 0.0015449928 0.03925855 0.03097023 -0.0018935169 0.014312847 0.04045962 0.019415235 -0.001102157 0.0031796272 0.100749575 0.020241344 -0.048378337 0.04279388 0.058784865 -0.015153688 0.032354943 0.052519564 0.09665409 -0.021680243 0.009910303 0.062757045 -0.0047740024 0.060568277 -0.08708888 0.029061228 0.039483424 0.007948407 -0.026861627 -0.015612829 0.0147536835 0.0008994382 0.019387051 -0.02285327 0.0025330116 -0.025848072 -6.4142005e-05 0.026750682 0.016655875 -0.0052469284 -0.00974203 0.006180779 0.0015392827 0.023946494 0.018968556 -0.0027426104 0.06523278 0.031356387 -0.04441461 0.05742358 0.025087435 -0.011026488 0.004214873 0.0145438 -0.04825362 0.019066669 -0.008659655 0.03062133 -0.02043011 0.021786124 0.0103729665 0.0056480328 0.0077960836 0.04004891 0.019346092 -0.005823028 -0.05091834 -0.010863717 0.0957049 -0.03097595 -0.010588457 -0.0370932 -0.07058957 0.0040710834 -0.0013614311 0.029908454 -0.006891954 0.026767489 -0.04557567 -0.018740881 0.0150902625 -0.015149441 0.004893229 0.0005584908 0.013042898 0.008352918 -0.03524625 -0.024791831 -0.030130323 -0.012871792 -0.01058813 -0.002743113 -0.053578787 0.04101336 -0.0017477464 0.053502757 -0.04010303 0.04378979 0.022141067 -0.0045911223 0.0766196 -0.03120153 -0.008274275 0.009406397 -0.049633395 -0.03255888 -0.0052964184 0.033152178 -0.012800859 0.020725798 0.015678283 -0.053760685 0.006700228 0.014059604 0.0043437867 0.044667237 0.02526712 0.01636545 -0.05416744 -0.009949106 0.02278962 -0.093351886 -0.015978782 -0.07378349 0.019269058 0.0063333604 -0.025839048 0.009527419 0.013205216 0.055948008 -0.034664936 -0.08278648 0.020099279 -0.06650491 -0.034279324 0.02859348 -0.022550818 0.020046402 -0.05740444 -0.02215723 0.030265816 0.040551957 0.0038162374 0.04220869 -0.02427692 -0.0014405107 0.0131565565 -0.05420101 -0.0028408228 -0.023014639 -0.020723743 0.026376436 0.037284374 0.0013748815 0.07099796 -0.029842257 0.017459465 0.03544489 -0.08841341 0.013342451 0.07855622 0.040740054 0.009231021 0.1424976 0.14764628 -0.45921993 -0.8245768 0.02653382 -0.26735768 0.9015995 -0.1157613
s 0.015155012 0.10069899 -0.0013306066 -0.003227533 -0.04147472 0.028865376 -0.011946656 0.05089778 -0.061928485 -0.018386694 -0.023048531 0.0620132 0.047242522 -0.026394546 -0.07616456 0.007088563 0.008273369 0.016015401 0.04071242 0.017162941 0.06775393 -0.009298789 -0.0110895755 0.027268372 0.024291025 0.0077371374 -0.096644215 0.05801282 -0.06244738 -0.06725903 -0.04554802 -0.0259959 0.039497137 0.025178134 -0.036643174 -0.07511499 -0.005885613 0.005643928 -0.02058377 -0.06356257 -0.038358413 0.005158774 -0.020966807 -0.022485914 -0.03495557 -0.004321292 0.012711564 0.0508765 0.033103365 0.07710216 0.05000471 0.04561816 0.0073596365 -0.0025616772 0.028927231 0.027331986 0.005468441 0.021319944 -0.055946533 -0.06520897 0.003922585 -0.04841128 -0.027499316 0.01784137 -0.017775916 0.040171508 0.021931713 0.0018813316 0.0016610757 -0.016987134 -0.029776098 0.0056896103 -0.025958639 -0.005630317 -0.012806233 -0.004541517 -0.0069051045 -0.012339051 0.02040767 -0.0028306996 0.025766494 -0.03565422 0.018289924 0.020561062 0.007937501 -0.021121232 -0.031492576 -0.029557427 0.03868072 -6.525806e-05 -0.06279371 -0.064493954 -0.011604402 -0.01523446 4.1234005e-05 -0.006049361 0.01546764 0.02907618 0.0404012 -0.023155924 0.048245445 0.0019129467 -0.139203 0.06480756 -0.02102485 0.036628027 0.015914027 0.059341256 0.06659439 -0.04022977 -0.032250255 0.02602445 0.052979276 0.022861492 0.028815465 0.075836934 0.015778296 0.0032632903 0.0008711347 -0.006589842 -0.06285722 -0.047147892 -0.039788533 0.046201132 -0.027976185 0.0009651488 -0.074830286 -0.02654107 0.044958513 -0.00636612 0.049929228 0.099223785 0.014498784 -0.008636071 -0.0035069012 0.03812711 0.02800678 0.02023438 0.017896986 0.043519832 0.007524685 -0.018927246 0.025400756 0.031423043 -0.0038899647 -0.0110632265 0.036975663 0.07074955 -0.007335785 0.0023549986 0.056837387 -0.002332911 0.05306379 -0.07423388 0.08046332 0.035654124 0.032229576 -0.01940193 -0.023714527 0.04342195 -0.020655937 0.00516257 -0.0060646087 0.015110151 0.014536008 -0.009949938 -0.02290459 -0.01881305 -0.022930296 0.0034075272 0.0124963615 0.016976466 0.028800864 -0.0106192855 0.0049215397 0.07452401 0.00023384871 0.020687528 0.04871935 -0.0045488896 -0.0067116357 0.010106485 -0.03578546 -0.014995709 -0.01727922 -0.06837473 4.401585e-05 -0.014601416 0.01213444 0.0155343115 0.02842637 0.012266035 -0.015051587 -0.011162798 -0.00788454 -0.05007844 0.014610427 0.037496686 -0.014360941 0.012845893 -0.03148034 -0.03143919 0.011233472 0.0042875684 0.025244419 -0.0075970744 0.020615764 -0.010190728 -0.026097028 -0.00095674046 0.007431492 0.0009958275 -0.009102113 -0.011247894 -0.004197594 -0.035595838 -0.024279496 -0.03171394 0.0026634787 -0.020695994 -0.020823225 -0.012764944 0.007566212 -0.023321932 0.01819783 -0.017188963 0.016925035 0.009915206 0.010218201 0.07201636 -0.042404376 -0.0066799494 0.036377177 -0.027602121 -0.015737304 -0.014536717 0.07356286 -0.012818337 0.05164589 0.037131608 -0.10098658 0.0107094245 -0.010776335 0.02777483 0.048101887 0.013699423 0.032184616 -0.046457496 -0.029429572 0.015511332 -0.09317795 0.0019346147 -0.06234277 0.01189965 -0.038983073 -0.0038736581 -0.023356233 -0.051598083 0.04482536 -0.04527187 -0.031705737 -0.0058081197 -0.046393096 -0.029895676 0.028036552 0.010336458 -0.005988803 -0.03192849 -0.024231931 -0.003241375 0.059353173 -0.025750805 0.033799462 -0.037769165 0.024715485 -0.017925335 -0.001674662 -0.034323767 0.004023733 -0.04005742 0.05735534 0.049980283 0.021210134 0.035702135 -0.017539082 0.03323516 0.044386774 -0.027801342 -0.044224646 0.07432759 0.0090426095 -0.020796172 0.1371202 0.18808371 -0.4873367 -0.79319525 0.023984283 -0.26682165 0.89986974 -0.13023105
r -0.038448162 0.047616724 -0.0011218278 0.027469335 -0.1179316 0.045929495 -0.013972544 0.008408172 -0.014453198 -0.043945868 -0.05407621 0.086717665 0.07286778 -0.049360346 -0.05843827 -0.004697972 0.06450853 -0.058208074 0.009755849 0.0029241457 0.10692782 -0.023722615 0.0140194055 0.06698801 0.04269831 -0.017036708 -0.07216562 0.04644432 0.0020547677 -0.071205206 0.0012854316 -0.039869774 0.026305914 0.053059753 -0.062872246 -0.12179754 0.009759887 -0.0070483107 -0.011380852 -0.06429616 -0.01897504 -0.028834093 0.0201973 -0.0054390905 -0.023565583 -0.024294557 0.020261094 0.06790821 0.03587121 0.0967874 0.0026868507 0.04995496 -0.0036589582 -0.0053263246 0.03233218 0.027439825 0.03915658 0.030792413 -0.06681211 -0.053326923 -0.006580228 -0.075583585 -0.034193564 0.018549602 -0.02010533 0.018638259 -0.021616487 0.022260634 0.018403737 -0.013189165 -0.005500637 0.0032135558 -0.093742535 -0.03498713 -0.03592341 -0.015486162 -0.013142185 -0.037871946 0.06256815 -0.032219682 -0.005560933 -0.05394838 0.054250974 -0.010478554 0.0054464606 -0.06770568 -0.069542915 -0.06381167 0.01606055 -0.021414768 -0.038754646 -0.009445126 0.024288515 -0.058214158 0.011245368 -0.035529938 -0.0022277425 0.0076119956 0.05163834 -0.0066694566 0.03668447 -0.001147557 -0.11479299 0.0517492 -0.017301261 -0.002302638 0.0014626713 0.03215341 0.0011433755 -0.005706162 -0.009064393 0.0041215057 0.039422534 0.009701611 0.04067426 0.07393249 -0.0012387255 0.0012276686 -0.0130235655 0.0057525835 -0.018488036 -0.053848438 0.0019957277 -0.0014134018 -0.026579 -0.0023417417 -0.056691222 -0.013054956 0.036236238 0.031022076 0.041424673 0.020001648 0.041730873 0.026000308 0.0028772536 0.05250619 -0.028078575 0.005607151 -0.021093605 0.030121239 0.004181889 -0.0058867596 0.029285107 0.011813059 -0.002774911 -0.0011212197 0.03626193 0.043490805 -0.0420706 0.016957082 0.054120902 -0.02345391 0.04332675 -0.032710757 0.04320778 0.01214137 0.03100552 -0.043099873 -0.034167267 0.049794726 -0.016193422 -0.020417523 -0.011599773 0.007131041 -0.0008922299 -0.00012965377 -0.0025309748 0.032697644 0.015709199 -0.009823852 0.009528441 0.0016539738 -0.0065358602 0.006485101 -0.0024689995 0.01430299 0.028325172 -0.0019485964 0.010422292 -0.00029120626 -0.009228894 -0.012306308 0.0059481016 -0.033918593 -0.016812287 -0.008152958 -0.04034822 -0.026270056 -0.014685137 -0.0036415523 -0.009564168 0.001272623 -0.005563313 -0.036490206 0.013470619 -0.062601686 -0.02232619 0.072200485 -0.0046625235 -0.023564614 0.008810625 -0.027926302 -0.0003263928 -0.02339967 0.038832206 -0.0322028 0.067582786 -0.032324225 0.009430639 0.00700539 -0.013687018 0.011493399 -0.006092522 -0.030460611 0.028124219 -0.044867717 -0.022214066 -0.015954807 0.017638283 -0.022043103 -0.02833698 -0.059644926 -0.0056625716 -0.016492683 -0.002907659 -0.01587313 0.010475468 0.0019171857 0.009881715 0.12945998 -0.021800758 -0.007653722 0.055047154 -0.010438242 0.0030324957 -0.0181598 0.12727146 0.00896366 0.03081149 0.013803535 -0.0921508 0.016296063 -0.015154034 0.0017496409 0.045195848 0.011252773 0.043155972 -0.056999404 -0.03837984 0.020574233 -0.07421663 -0.016957795 -0.08959831 0.03905392 -0.033328354 -0.027366973 -0.00847345 -0.03257278 0.025154158 -0.040525477 -0.05315733 0.008865713 -0.040047787 -0.04147991 0.026688844 -0.015169889 -0.010898416 -0.005587264 -0.04115111 -0.017845444 0.060260337 -0.03460389 0.010860335 -0.027602956 0.034873262 -0.01808384 -0.0003445401 -0.01018306 0.0031552638 -0.10442614 0.059124336 0.06764865 0.047384407 0.03632229 -0.004956573 0.03464552 0.08743366 -0.004908223 -0.03361101 0.08965899 0.03205398 0.015474678 0.13313398 0.1336531 -0.4094711 -0.87781906 0.06345775 -0.20800473 0.8647455 -0.13610713
h 0.0054986677 0.05481282 -0.02923539 -0.023746723 -0.063993946 0.049577996 0.027822252 0.15254958 -0.055928178 -0.018811299 -0.07276194 0.051017575 0.113596655 -0.014145868 -0.031117506 -0.002513064 0.07479191 0.00047320465 -0.015009439 0.033787444 0.10007679 0.02228488 0.06550202 0.10898033 0.05715597 0.04427626 -0.060027674 0.0018720711 0.02012839 -0.054852787 0.03422236 -0.035699695 0.04212689 0.09142393 -0.1007385 -0.186076 0.059575494 -1.0808974e-05 0.036753345 -0.033883967 -0.02780813 0.01803764 -0.084814675 -0.06457628 -0.053990703 -0.06787221 -0.033339664 0.050438732 -0.05186215 0.07946966 0.028590854 -0.012390251 0.02843471 0.058917854 0.050094612 0.048849024 0.0015175022 -0.014144287 -0.032989755 -0.01112988 8.5455846e-05 -0.033089224 -0.0059529473 0.03716464 -0.036942784 -0.010175994 -0.011209562 0.04865019 0.010485147 0.0009089238 -0.0053348537 -0.027802883 -0.07072045 -0.03215867 -0.06875513 -0.012338828 -0.03822777 0.009370332 0.030087238 -0.010452666 0.02948818 -0.053201582 0.0056856307 0.037000254 0.018322831 0.004120877 -0.027666062 -0.05083137 0.035126776 -0.010532646 -0.0065410547 -0.023769174 -0.01600055 -0.03296471 -0.037729207 -0.034830477 -0.004240734 -0.014421431 -0.035993565 0.011216373 0.012528698 0.01423237 -0.07581074 -0.013993666 0.03362943 0.038797848 0.003252461 0.016097799 0.044847872 0.0055677523 0.006197542 -0.0031357675 0.05231851 0.02455443 0.03324919 0.036693487 -0.02857282 -0.01234415 -0.027801964 -0.012447087 -0.012312393 -0.0127493255 -0.02078792 0.03165654 0.009193624 -0.028964596 -0.07087343 -0.026763754 0.0048301 -0.024221178 0.070197165 0.06449368 0.005904581 0.010294115 0.007528123 0.0009093284 0.014935688 0.023814838 0.016558196 0.020408891 0.027679466 0.00153019 0.014707298 -0.021878352 -0.045978677 0.027737105 0.06542506 0.09067267 -0.043328397 -0.0051115565 0.050954368 0.011986766 0.06981417 -0.080494046 0.036455303 0.032567117 0.004997479 -0.052234866 -0.014099028 0.029474156 0.009984488 -0.045565393 -0.041008532 0.025884464 0.013286816 0.021927819 0.0053070136 -0.037850965 -0.030801734 0.0035977578 0.015828967 0.017720204 0.014506244 -0.008862812 -0.019018043 0.08045949 3.58842e-05 -0.029144892 -0.019812616 0.019424347 -0.017043928 0.02153381 -0.0024361012 -0.033692516 -0.013814637 -0.06835646 0.023287939 -0.012007678 -0.015315338 0.0066507286 -0.02549093 0.0049882084 -0.008256091 -0.015264565 -0.020948382 -0.073954046 -0.0010819326 0.03380639 -0.021294072 -0.0074733496 -0.045296133 -0.022517877 -0.00036125514 -0.021216538 0.044599157 0.011319694 0.02239485 -0.0007977228 -0.02817177 -0.014275844 -0.00022062544 -0.0028038246 -0.03665362 -0.019759925 0.016749911 -0.051859997 -0.054097343 -0.021507468 -0.0092557715 -0.06321484 -0.035660118 -0.036953636 0.03267939 -0.040168025 -0.009973368 -0.024316587 0.0076337447 -0.00015521178 -0.018500712 0.041567747 -0.031727824 -0.037746795 0.039540365 -0.03814807 -0.025150716 -0.035237215 0.08564495 -0.0007935085 0.045474783 0.05619141 -0.103738695 0.039546967 -0.0081212185 0.026855016 0.076349124 0.011975696 0.028801454 -0.10260637 -0.053772353 0.008649715 -0.113126375 -0.028122693 -0.09230665 0.03203749 -0.032746375 -0.031110577 -0.018466443 -0.04082993 0.05040196 -0.04414874 -0.070528306 -0.034838915 -0.032272775 0.0075104646 0.07559988 -0.017967004 -0.013936459 -0.0465793 -0.038192462 0.014991499 0.04373032 -0.05257031 0.008917198 -0.025148686 0.022270875 -0.025214845 -0.014875049 -0.002564646 0.003989766 -0.0060299556 0.06844077 0.011803832 -0.00051031495 0.05036877 0.011753393 0.04635204 0.08258955 -0.050376862 -0.013802518 0.031220034 0.002479911 0.03725987 0.17699434 0.21916181 -0.46351165 -0.8357797 0.07376504 -0.23100592 0.869889 -0.06928661
l -0.03727911 0.039312225 0.01549822 0.021562235 -0.022013528 0.008663914 -0.0017784447 0.008856741 -0.027950605 -0.00785639 0.023354406 0.015383304 0.06297853 -0.0036717467 -0.034798134 0.03254999 0.09053606 -0.04934401 0.043651998 0.02673066 0.09233821 -0.024218407 0.032881968 0.066609755 0.036483314 0.048876952 -0.09177848 0.03198848 -0.009736866 -0.047150765 -0.03200069 -0.06559933 0.019844877 0.14292812 -0.08952267 -0.11731305 -0.0022685037 0.05379768 -0.03326942 -0.022386862 0.026125018 -0.00023571099 -0.047669597 -0.049991954 -0.030693812 0.003489446 -0.00593111 0.03661082 0.007259967 0.04453821 0.058254007 0.060164873 -0.030442929 0.018686032 0.02202 0.03549885 -0.0035858338 0.01147455 -0.048077114 -0.079252616 -0.010328313 -0.10133186 -0.005330048 0.08789956 -0.03564762 0.029771527 0.0072889705 -0.0041089836 0.01857629 -0.0025663883 -0.017073926 -0.0037523569 -0.0365192 -0.03069711 -0.011076631 -0.009050167 -0.03353299 -0.006475669 0.022639476 -0.0033997018 0.016209155 -0.05404208 0.02090584 0.02440713 -0.015145272 -0.032661106 -0.038212627 -0.048073452 0.033400055 0.006280245 -0.060262833 -0.014096911 -0.02605903 -0.016476467 0.00069772877 0.030288836 0.003695852 0.009285327 0.033870067 -0.016122924 0.040272083 -0.0071599316 -0.10198811 0.053727858 -0.0023714735 0.033427805 0.0037147852 0.029435234 0.019336348 -0.028098382 -0.03325367 0.023226494 0.03866497 0.011761164 0.022192521 0.039972544 0.009207565 -0.010467808 -0.011233442 0.002606522 -0.02902505 -0.028679118 -0.0021775975 0.008518823 0.008755371 -0.025222344 -0.046981093 -0.017816463 0.035442103 -0.021079209 -0.0056391223 -0.018655248 0.024151312 0.009600475 0.010294809 0.02592498 0.02736267 -0.016563438 0.012400048 0.07924643 -0.014945519 -0.01891949 0.02252516 0.02021068 -0.036245104 0.014610899 0.081445985 0.048986163 -0.014201849 0.04086021 0.038031776 -0.04224783 0.032368235 0.030947154 0.07339003 0.00042925056 0.0009027316 -0.034477904 -0.02522835 0.004420814 -0.04409846 -0.034467697 -0.031150687 0.034228355 -0.0020341983 -0.027434632 -0.030459281 -0.029003037 -0.018010236 -0.0067157494 0.025957357 0.0025110357 0.04517584 -0.017388314 0.024942698 0.098142006 0.024825579 -0.012587583 0.04016785 -0.016887214 -0.007840219 -0.0049322513 -0.05000032 0.0024027813 -0.024554929 -0.113761626 0.013014647 -0.015601842 0.05234555 -0.009875971 -0.0024978672 0.0120115215 0.013284093 -0.01248164 -0.014012823 -0.06245037 -0.001984231 0.036749262 -0.028673213 -0.00041588664 -0.022092614 -0.032927148 -0.00029643235 -0.035776265 0.04396195 -0.049888108 0.011187327 -0.037478365 -0.049736135 0.033455893 -0.0041556736 0.020901352 -0.032490462 -0.04460739 -0.032778773 -0.03528019 -0.031391196 -0.026147552 0.014519304 -0.031951714 -0.019683443 -0.048340846 -0.0059831757 -0.00543018 0.0045024953 -0.01118631 0.0062993877 0.02804516 -0.009871566 0.08349803 -0.0717319 -0.018804615 0.051419593 -0.03823564 -0.017667664 -0.022514047 0.07616488 -0.029503787 0.05243528 0.020454321 -0.108980305 0.03935407 -0.0033634065 0.01954419 0.03464527 0.020303193 0.037333824 -0.019396462 -0.033166748 0.03119119 -0.12114103 0.0045657563 -0.05865495 0.01054487 -0.011265412 -0.0060250503 -0.012512942 -0.043770608 -0.004696118 -0.08127833 -0.06521798 0.013585111 -0.06090328 -0.073997475 0.005196243 -0.018638944 -0.026743371 -0.039578307 -0.06045403 0.0018221487 0.1162024 -0.013970269 0.06736671 -0.032486234 0.0044346876 0.0034490577 -0.04685996 -0.04316695 0.0036078112 -0.05988141 0.07040562 0.09869714 0.057556868 0.12447419 -0.02473945 0.07406122 0.06545553 -0.044809025 -0.022484597 0.09338152 0.0399661 -0.01510422 0.08440495 0.13521595 -0.4536226 -0.89822185 -0.0007860883 -0.20978111 0.825714 -0.17712088
d 0.0028235458 0.047454797 -0.010340187 -0.008129416 -0.014704624 0.013191313 0.004761527 -0.012545924 -0.033440858 0.008369283 0.00067794137 0.015612616 0.030746503 -0.046735838 -0.0191937 -0.023942614 0.05629353 -0.028197978 0.056733042 0.029398821 0.07861381 -0.013632388 0.06396923 0.10090781 0.053053617 0.07532087 -0.16442788 0.07186529 -0.021963967 -0.063039936 0.019020783 -0.032818206 0.03217429 0.06659688 -0.069234446 -0.11335406 0.017455697 -0.004340059 -0.018410172 -0.04025956 -0.00068003003 0.010931167 -0.03860029 -0.04554837 -0.013133526 0.0040763346 0.0048587252 0.006098632 -0.0040308 0.031858984 0.068715826 0.037034564 -0.0075648255 0.03764703 0.038261443 0.05360353 0.017623514 -0.020922452 -0.044951472 -0.07022886 -0.011782894 -0.057205617 -0.015115477 0.044447545 -0.026910068 -0.011887578 0.005535184 0.032222886 -0.011300665 -0.031150673 -0.0118268775 -0.0020175066 -0.07809915 -0.034436967 -0.04186978 -0.0062417286 -0.035433955 -0.006064119 0.04487939 -0.022199282 0.038750198 -0.058319375 0.057028618 0.017828457 -0.003440133 -0.05989701 -0.07650398 -0.05504294 0.03094469 -0.0044000014 -0.06905722 -0.04220473 0.0073493593 -0.030076995 0.009889648 0.004033326 0.03410049 0.0075496724 -0.017388405 -0.019875288 0.072609805 -0.01215515 -0.1279877 0.052362815 -0.003169291 0.015524889 -0.011111517 0.024279129 0.040850382 -0.046530593 -0.016398236 0.04323826 0.043162715 -0.011254167 0.05441155 0.087195165 -0.0002801166 -0.018936418 -0.0021424622 -0.015505436 -0.05834492 -0.04647073 -0.025146617 0.033255506 -0.007827648 -0.019723713 -0.06837981 -0.023105398 0.04628595 0.019413004 0.028670149 0.015173487 0.04648727 0.019213397 -0.006545267 0.019490253 0.019135145 0.004860943 0.007852601 0.058982793 0.012691232 -0.026828794 0.019433104 0.033834416 -0.025983946 0.004851661 0.039876483 0.011970065 -0.011964593 0.0048681763 0.04628499 -0.0032056088 0.026089419 -0.028974151 0.06745845 0.014362687 0.017583393 -0.011563411 -0.019938365 0.025127115 -0.02451378 -0.017014267 -0.024386857 0.013099571 -0.0058649126 -0.010713892 -0.020080784 0.007126136 -0.003433044 0.0036319941 -0.00682685 -0.0027300622 0.025745898 -0.028688349 0.041688886 0.044366572 0.02040352 -0.0010939774 -0.0010939845 -0.039347783 -0.015394401 -0.005052182 -0.035037417 -0.01868071 -0.010749411 -0.04953318 0.008133167 -0.031643867 0.052689552 -0.014837612 0.0031808575 0.003469027 -0.010764068 -0.02206775 -0.007854295 -0.072775945 -0.0010886104 0.050011795 -0.025837244 -0.0037831299 -0.014619042 -0.014031782 -0.0062137377 -0.017072128 0.02276661 -0.033454843 0.029820383 -0.0111404555 -0.04596108 0.017985268 0.0027391335 0.029001852 -0.022323139 -0.011935776 0.011495071 -0.06744179 -0.021008167 0.021157559 0.013911846 -0.02284397 -0.015157156 -0.042074934 -0.004368272 -0.007766681 0.022033973 -0.015227634 0.01553601 0.030844474 0.00061185623 0.07846162 -0.043490566 -0.028642252 0.0059625483 -0.038682904 -0.028496549 -0.026648708 0.056365903 -0.02128101 0.041317657 0.02688185 -0.087528415 0.0072880704 -0.008425361 0.014772217 0.020511933 -0.019328076 0.014802 -0.060186505 -0.021455921 0.0077994633 -0.092772864 0.003260297 -0.052219786 -0.008899629 -0.032602854 -0.018033491 0.0001680053 -0.028480379 0.008007006 -0.05766205 -0.04284304 -0.012430773 -0.03465236 -0.034826897 0.011412186 -0.004659513 -0.047873445 0.00035177602 -0.053666487 0.013989995 0.066096365 0.0044963863 0.02741703 -0.05336653 0.03752638 0.015281995 0.001028765 -0.054406628 0.0064704465 -0.04665421 0.028810022 -0.0057457914 0.00015553496 0.045104563 0.015878765 0.020612434 0.046909038 -0.04166452 -0.01682194 0.012685489 0.01751157 0.00018938788 0.04086486 0.18902498 -0.45626843 -0.8138015 0.065019615 -0.23505554 0.9134882 -0.08879049
c -0.035568196 0.13636461 0.056776628 0.03574999 -0.037263755 0.032959603 -0.024080627 0.010887891 -0.034314286 -0.008023333 -0.044247035 0.0993456 0.054585792 -0.0055751167 -0.09208377 0.02350531 0.06231427 -0.024300698 0.051172465 0.07335025 0.070865855 -0.0354879 0.0010375357 0.039940365 0.036680758 -0.018340642 -0.16597664 0.03966692 -0.08921872 -0.07510881 -0.044724993 -0.060452834 0.022777863 0.015758492 -0.08225964 0.00071984064 -0.00398464 -0.010216689 -0.015378596 -0.09713293 0.014157568 -0.008211371 -0.036501464 -0.0068007885 -0.027850615 -0.033508003 -0.039339434 0.059051774 0.030825932 0.04589289 0.04137801 0.048546836 0.0031557544 -0.041045155 0.014588859 0.021727243 -0.03936342 0.03152788 -0.033954836 -0.0155836 -0.02201683 -0.028495543 0.014128982 0.020120451 -0.0069064205 -0.019066311 -0.0025054074 0.02316272 0.02498089 -0.027966525 -0.026731864 -0.004066075 -0.09916121 -0.032572217 -0.04820997 0.0011852165 0.0017421748 -0.035130452 0.05773511 -0.048678108 0.016632324 -0.004765963 0.05919901 0.004211669 0.0070090666 -0.08153922 -0.049684305 -0.05273834 0.017036453 0.015801277 -0.054824874 -0.033335224 0.014846106 0.0032065348 0.013463894 0.002861195 0.020782229 0.028543422 0.036193404 0.00758137 0.04996226 -0.008964261 -0.09054602 0.06218214 -0.034696892 0.030639522 0.018251179 0.063148804 0.035180114 -0.031064654 -0.03462933 0.025473949 0.03925123 0.021194844 0.02880455 0.07836488 0.01926152 0.02611381 -0.00013725668 0.005693265 -0.057910774 -0.033001553 -0.030315068 0.02055605 -0.04697457 0.041689716 -0.024751421 -0.0032719614 0.047363903 0.0068610506 0.03614164 0.083224535 0.034050867 -0.005055901 -0.009263271 0.036819074 0.055839017 0.015580538 0.010622848 0.07922344 0.0031890944 -0.04933795 0.044088617 0.06035483 0.009724338 -0.017075239 0.010866313 0.06520205 -0.016203525 0.011285397 0.054057103 -0.017331654 0.027201029 -0.038618427 0.04609882 0.015729694 0.02448713 -0.0033255075 -0.017520579 0.013886321 -0.023941526 -0.030676039 -0.018729111 0.017113319 -0.007266116 -0.020750916 -0.030636914 -0.01588597 -0.019534796 -0.00970926 0.020456137 0.012709195 0.0036244462 -0.008429205 -0.02294712 0.08823158 0.041005626 0.011948322 0.062329795 0.00019963579 -0.03166722 0.0108681405 -0.030261619 -0.017774666 -0.0138124 -0.059042692 -0.01145589 -0.02151555 0.013222702 -5.9238686e-05 0.005311767 0.019473609 0.011229123 -0.05300851 0.010501027 -0.049480967 -0.0013514721 0.0486036 -0.019951595 0.014547338 -0.0012253167 -0.037842598 0.014427488 0.0034953055 0.024400422 0.007956921 0.036573227 -0.041534763 0.0006244467 0.0061611715 -0.0011253476 0.0010865879 0.006835767 -0.010445868 0.013642719 -0.02696953 -0.011862604 -0.03198587 0.033741485 -0.013493071 -0.031137025 -0.03171562 -0.0008006284 -0.03697251 0.04076513 -0.02092068 0.025521785 0.005929203 0.015493887 0.09292731 -0.03616566 -0.0070238365 0.04786585 -0.014401918 0.005495483 -0.0076794755 0.124835365 0.012348242 0.038366295 0.038685333 -0.071759515 0.034011252 0.017734008 0.0468568 0.027421873 -0.006075644 0.008639698 -0.071781754 -0.013942498 0.030093515 -0.07957812 -0.027103627 -0.008636886 0.0050273514 0.004331277 0.01923438 -0.031422414 -0.04097699 0.056473397 -0.114626125 -0.03537677 -0.008283153 -0.028147722 -0.101113774 -0.01784224 -0.006031952 -0.016807975 -0.0012612557 -0.07208894 -0.0059261643 0.04744582 0.04942509 0.04099655 -0.020681811 0.05355066 0.0029576507 0.014674657 -0.09551168 -0.0056356895 -0.08626907 0.08154926 0.09089105 0.040286288 0.009615487 -0.053278763 0.052272975 0.048164293 0.0046196934 -0.011921421 0.024470488 0.027823405 -0.036066502 0.07896649 0.100694194 -0.45132872 -0.8181605 0.034407776 -0.2909701 0.8714064 -0.12552942
u -0.024213672 0.02226953 -0.014498885 0.024293432 -0.04881042 -0.06156871 0.0034674539 0.046362758 -0.13116398 0.08599078 -0.020683907 0.11846105 -0.01696206 0.023484426 0.007068818 -0.059977416 0.0055838693 0.0135393515 0.057993654 0.08750318 0.11558573 -0.023804666 -0.033763442 0.08743274 0.04064199 0.103936866 -0.049998216 0.06729444 0.012993187 -0.10247762 -0.043640353 -0.0071159475 0.07820419 0.08476598 -0.04316895 -0.1213401 -0.034048345 0.039505333 -0.010102876 -0.02339906 0.014481337 -0.0020597384 -0.022211019 -0.009728431 -0.048086863 0.028241556 -0.0011867373 0.019445412 0.078482285 0.12099631 0.055342287 0.12289058 -0.089663774 -0.03361588 -0.005400912 0.006686711 0.008820207 0.0675214 -0.040438395 -0.003575066 0.027704662 0.011844746 0.029411495 0.051650025 0.07871507 0.12733263 0.062078416 0.0648383 -0.005618939 -0.10191914 -0.028367301 0.064226985 -0.10271503 -0.0048629255 -0.061236802 -0.0033400971 -0.0076381247 0.023364846 -0.0036413718 -0.05140174 0.05366801 -0.07796671 0.09119814 0.0051146136 0.030566849 -0.1450426 -0.031021327 -0.039864764 0.026811471 0.022031678 -0.008465758 -0.0073626484 0.002842251 -0.025532126 0.0098555125 -0.007594092 0.008105743 0.030868812 -0.0031073585 -0.005339578 0.008119393 -0.036080606 -0.04301774 0.0469932 -0.012131231 0.04611314 0.041551095 0.029858008 0.039509367 -0.009127592 -0.03198113 -0.0020158535 0.014347876 0.0014093232 -0.031545337 -0.0044133854 0.00060160115 0.012125455 0.009919642 -0.0050333724 -0.034118764 0.060827214 -0.04535348 0.01659731 -0.03378603 0.02808166 0.016725054 -0.0012250696 0.0378978 0.0035003996 0.011688909 0.07051509 0.0020970865 -0.046092123 -0.018670617 -0.03368025 0.020286012 -0.0060930285 0.003202488 0.017718717 0.035892263 -0.04887742 0.010316026 0.00017155068 -0.0047265026 -0.01152455 0.02575176 0.09420773 -0.014121582 -0.011822824 0.05891929 -0.020526793 0.052672777 -0.012985296 0.07484767 0.04897814 -0.0011369615 -0.01175508 -0.023738518 0.017546032 -0.02813558 -0.026782209 0.008205646 0.036360685 0.01919735 0.012231244 -0.014797985 -0.023688141 0.0139334975 -0.0052442444 -0.008636157 -0.03366577 0.031517375 0.03668802 -0.001199836 0.05060685 0.025999365 0.032434814 -0.0010511007 -0.019614877 -0.03491713 0.059095226 -0.04424727 -0.011790402 0.012547748 -0.05146938 -0.009086786 1.438465e-05 0.009218577 -0.018791461 0.01905635 -0.0327462 0.023274992 -0.046287104 0.023900934 -0.08671688 -0.002342026 0.0743619 -0.029865405 0.012552094 -0.10885501 -0.03103465 0.010389552 -0.00097260263 0.055870958 -0.00073984946 0.050390065 -0.05268277 -0.010081859 -0.015595204 -0.03202808 -0.02835445 -0.006398905 -0.05638384 -0.007890081 -0.03604231 -0.051190067 -0.040480595 -0.0067212298 -0.050195254 -0.056146882 -0.08887091 0.01804709 0.006583223 0.049051695 -0.012388171 -0.008483969 0.044587675 0.033370037 0.09447325 -0.011978674 0.00609188 0.04701086 -0.048498195 -0.027893525 -0.014815266 0.09317294 -0.02205567 0.009838215 0.04536206 -0.09930754 0.033617917 -0.00018757187 0.055998225 0.016199017 -0.038929585 0.050443407 -0.054260995 0.004205932 -0.0016851551 -0.03767169 -0.0061517777 -0.09927298 0.026156487 -0.015432885 -0.013900652 -0.12994057 -0.032549053 0.04941528 -0.027881997 0.006071693 -0.031909913 -0.0075578718 -0.10314789 0.04838106 -0.009523317 -0.026493764 0.004573822 -0.052724916 0.0075101885 0.08333256 -0.006015406 0.061930094 -0.023184579 0.030838458 0.0005394683 0.00533528 -0.02641939 -0.04601949 -0.00572925 0.08363514 0.078279965 0.015980199 -0.027515383 -0.028720351 0.0012955476 0.02355352 -0.026232144 -0.061160367 0.05178201 -0.03465267 -0.004829473 0.1709424 0.13128756 -0.40047434 -0.8471546 0.11192439 -0.21180095 0.8942589 -0.1931776
m -0.05974634 0.064858265 0.039022498 -0.037820857 -0.04474522 0.026152752 -0.01938116 0.02085585 -0.034375735 0.033258855 -0.05181998 0.034139983 0.045319 -0.049011774 -0.081834406 -0.0042822324 0.0872126 -0.02893482 0.0035567186 0.029093517 0.024566203 -0.006535737 -0.0027019356 0.060065243 0.07654691 0.0047558825 -0.05284369 0.07856891 -0.03239901 -0.04216112 0.07055169 -0.011584396 0.03171838 0.0144251315 -0.08201372 -0.053734783 -0.0031042246 -0.0016755662 0.03937653 -0.045425892 -0.008055477 -0.008327255 -0.02112607 -0.013202569 -0.03871612 -0.048137274 -0.0021875978 0.003026594 -0.027420588 0.0175147 0.023311911 3.3137087e-05 -0.039414443 -0.03157714 0.031030234 0.01751545 0.029425317 -0.026553612 -0.018393382 -0.039008345 0.0037949802 -0.04646186 -0.014367128 0.014313492 -0.006511393 0.04333694 0.026848018 0.06454501 0.023278596 -0.0029866234 0.0019130578 0.019114101 -0.11271181 -0.041108172 -0.07445997 0.01804776 -0.018624626 -0.032695714 0.05277565 -0.03183539 0.04411731 -0.039305866 0.059856094 -0.00092780247 0.021080812 -0.089531146 -0.04541661 -0.07649791 0.027009118 -0.0065455833 -0.052293513 -0.020017417 0.027253728 -0.052705005 0.036061935 -0.023260146 -0.0026220763 0.019178668 0.032791916 0.00996792 0.049511023 -0.029262483 -0.12111202 0.0859724 -0.0017737302 0.013132238 0.013816895 0.022812959 0.03251743 -0.007555513 -0.010195901 0.022026302 0.06418592 0.04084931 0.01748896 0.07266987 -0.005485691 -0.026669903 -0.0027086772 -0.0155098885 -0.0023769476 -0.054803275 0.0005432054 0.01005308 -0.036426604 0.015480985 -0.023254525 0.017763732 0.04550503 -0.009563847 0.03450112 0.048604835 0.04003727 0.024369841 0.02109117 0.009425466 0.065110795 0.043617085 0.031054424 0.08071829 -0.0058210646 -0.02957368 0.06837533 0.030784713 0.007111279 -0.0065675266 -0.011017307 0.048731558 -0.012376184 0.0041135782 0.03701033 -0.016863352 0.031408917 -0.03227422 0.041898496 7.841265e-05 0.018677868 -0.01312537 -0.01041973 0.007245681 -0.032982185 -0.034994688 -0.019177213 0.031103164 0.010248772 -0.023809582 -0.01616708 0.011409973 0.003632945 -0.009895556 0.0034206556 0.008927754 0.041933578 -0.02187971 0.011114021 0.08355768 0.033060305 -0.00050319626 0.024451192 0.011905802 -0.013615158 0.020547021 -0.031478494 -0.02665614 9.984888e-05 -0.044914722 0.023752157 -0.05881746 -0.015651194 0.019016394 0.0030427633 0.027088724 -0.012314632 -0.058778796 -0.010940403 -0.073342 -0.0028776536 0.060529973 -0.035187826 0.024398057 -0.0046528983 -0.02235006 -0.00823392 -0.023996526 0.046198916 -4.3727516e-05 0.07717024 -0.06445036 0.0004786231 -0.015384459 -0.024568787 -0.0005180821 -0.019470887 -0.04618514 0.02901742 -0.040133625 -0.017561696 -0.00014372701 0.022840627 -0.03686273 -0.032426257 -0.05883488 0.016027248 0.015190156 0.040137846 -0.0014822073 0.0077723297 0.034271732 -0.004060656 0.09621837 -0.03871764 0.00049940735 0.0390185 -0.013303688 -0.0025694727 -0.039202664 0.08951031 -0.0033237077 0.037689287 0.013567643 -0.089658685 0.021152558 0.012653091 0.065541275 0.0092318235 -0.030450046 -0.00055557344 -0.08786111 -0.02903288 0.021096645 -0.10789783 -0.046098407 -0.05419566 -0.0052021835 -0.008473907 0.014888199 -0.04163859 -0.02898188 0.060733087 -0.048820868 -0.03288934 -0.0360359 -0.034580987 -0.07191648 0.000532556 -0.012071706 -0.016236503 -0.00012294682 -0.052259125 -0.008160355 0.034480266 0.043786287 0.035931 -0.0416897 0.023696205 -0.022565149 -0.022256624 -0.029948829 0.017488211 -0.03395342 0.043832645 0.0605874 -0.025894942 0.0025181745 -0.027820878 0.045242067 0.03342224 -0.04488162 -0.033496395 0.036674555 0.02088511 -0.021384181 0.095682934 0.17422567 -0.38734025 -0.83508587 0.052188586 -0.22759442 0.8624948 -0.06737793
f -0.010695006 0.110087864 0.069130264 -0.06090631 -0.0018583216 0.034496292 -0.019296369 0.04523949 -0.07073534 -0.009411666 -0.10963851 0.09295353 0.016779905 -0.017895805 -0.033957746 0.003375893 0.080331445 0.018293587 -0.040398616 -0.00069758826 0.058370262 -0.021530762 -0.014118494 0.046453618 0.030017849 0.029639529 -0.13820656 0.100059316 -0.017309356 0.012104106 0.054330196 0.008281723 -0.008354804 -0.05547237 -0.0022490437 -0.0032393935 0.01672677 0.0012977656 0.009454123 -0.022152474 -0.006386072 0.006619639 -0.016849859 -0.044775147 -0.033605296 -0.008581618 0.022061601 -0.0059624687 0.034998085 0.07297623 0.08652426 0.06348642 -0.008172623 0.021101994 0.017640652 0.049695708 -0.02525008 0.005292729 -0.043794457 0.0050863223 -0.007172032 0.012529666 -0.032575484 -0.01215725 0.04132885 0.0007497535 0.026032774 0.04830453 0.0050216084 -0.015287699 -0.02462024 0.042518973 -0.121279575 -0.029317413 -0.07413961 -0.016074404 0.014853549 -0.022542818 0.021755181 -0.04943189 0.03899098 -0.015954105 0.048606385 0.014849102 0.037837047 -0.05362395 -0.011075524 -0.042742185 0.030110307 0.0036589988 -0.012975278 -0.021992568 0.033514153 -0.015801894 0.045759123 -0.047639757 -0.015563174 0.034994822 0.03012294 -0.015649961 0.03328563 -0.008417242 -0.09910422 0.052040845 -0.017460696 0.024389153 0.004006979 0.020140355 0.04574502 -0.03615976 -0.0030962008 0.025713053 0.05214965 0.042239055 0.043554015 0.05902051 0.010466494 0.018515395 0.011642564 -0.009098766 0.011342813 -0.011451776 -0.02261816 0.025745142 -0.038228743 0.0031675627 -0.047109086 -0.0006034926 0.030460322 -0.028335927 0.026860157 0.055605654 0.030427178 0.012289903 0.029881239 0.05034326 0.03567667 0.00891816 -0.0019193384 0.061706033 0.02405816 -0.037865274 0.034586668 0.046575237 0.009787653 0.009726847 0.035200406 0.07068974 -0.022449033 0.007926534 0.023789 0.0059085186 0.048003297 -0.08259169 0.009323156 0.01970581 0.026907789 -0.030353505 -0.008482527 0.020642975 -0.020366317 -0.006179334 -0.028892653 0.022839017 0.02163745 -0.009638388 -0.019477133 -0.0014817332 -0.009690251 -0.0025464662 0.021016667 0.005987887 0.02840439 -0.009618132 -0.011026211 0.11203648 0.01896394 -0.005091903 0.0699306 0.0031290557 -0.0068795043 0.0102803875 -0.00991506 -0.04496848 -0.022287944 -0.12639078 0.022310179 -0.038836956 0.002165464 -0.0010901109 -0.016742669 -0.0043813908 0.005139058 -0.043322895 -0.017768236 -0.10930544 0.0003722963 0.12044898 -0.067841634 0.0091595175 -0.059330616 -0.07004481 -0.010367581 -0.062790796 0.07589026 -0.0033771738 0.09577181 -0.05282276 -0.0059734047 -0.014840975 -0.01889468 0.012276979 -0.0116897 -0.029620526 -0.0064494307 -0.060284976 -0.042619407 0.0018078084 -0.00995115 -0.012022069 -0.049032744 -0.056398194 -0.012621485 -0.009481077 0.023971582 -0.0106379725 0.024843777 0.017306129 0.015064038 0.09349935 -0.03946369 -0.014078985 0.024370775 -0.031092564 -0.009272572 -0.032493692 0.094549105 -0.010058244 0.037345074 0.040932503 -0.10724445 0.0032430908 -0.01498285 0.013418571 0.037385847 -0.006169679 0.016322665 -0.0830412 -0.050759945 0.02504759 -0.080667295 -0.043499023 -0.0670242 0.026163703 -0.02270721 0.0038736665 -0.07201892 -0.021332199 0.07347425 -0.037174594 -0.04140001 -0.049554367 -0.057524398 -0.049622774 0.06340777 -0.009027981 -0.016828844 -0.016730057 -0.02733882 0.000470629 0.059581727 -0.018072138 0.040040866 -0.042011347 0.017434206 -0.037158128 -0.019732332 0.023127727 0.003112499 -0.036883708 0.045943093 0.06965606 0.031452492 0.021849561 -0.05668802 -0.022782 0.09530901 -0.012689754 -0.04587329 0.1113614 0.04627241 -0.042747296 0.13815176 0.058127627 -0.40681967 -0.8214831 0.05799372 -0.22728327 0.8882458 -0.10449927
p -0.0609027 0.15024582 0.10895258 0.010535002 -0.037980754 0.04666681 -0.0013854787 -0.014193436 0.035988625 0.019924311 -0.07828079 0.031937547 0.014080161 0.037391935 -0.009360556 0.004324871 0.0689646 -0.06224009 -0.02683029 0.06902696 0.008433783 -0.014511819 0.016899735 0.02579823 0.028137311 0.0053106467 -0.15554515 0.115504354 -0.07798175 -0.05495801 -0.03136311 -0.049895026 0.024073534 0.014130492 -0.09253474 -0.008474307 0.0017453108 -0.0143820625 -0.029124474 -0.039975774 -0.025953311 -0.011703545 -0.024320314 -0.017570516 0.032718044 0.006684867 0.004693894 0.010930447 0.036502406 0.03653804 0.060528327 0.047594234 -0.040404633 0.0016973637 0.019514648 0.0353126 0.023661932 -0.020636255 -0.051495865 -0.033547156 0.00068781764 0.01252006 -0.04178753 -0.016483719 -0.012213006 0.042812455 0.05422025 0.033157464 -0.01954437 -0.01700138 -0.037751805 0.0038577307 -0.1507063 -0.07226296 -0.07757521 0.012656448 0.018156912 -0.04026134 0.054013837 -0.045191485 0.021577902 0.011176869 0.05315171 0.01084126 0.05068544 -0.061871503 -0.016103474 -0.05925412 0.052754227 0.008260269 -0.022012142 -0.012384613 0.011871977 0.00442115 0.001710467 -0.06974725 -0.014352528 0.013778683 0.03507314 -0.026481181 0.04872869 0.0027584755 -0.09201674 0.059051193 -0.0015899271 0.020282613 0.008557811 0.029388659 0.018667724 -0.050194703 -0.0069807875 0.020924725 0.036214683 0.032729648 0.039067067 0.07011535 0.025651462 0.028605957 0.027484909 0.0029827042 -0.009384256 0.012659351 -0.047117885 0.036613967 -0.014708499 0.0146769155 -0.011692282 0.0148511 0.025960201 -0.0008837263 0.021271102 0.042770006 0.02353133 0.008999077 0.015386893 0.03421074 0.047304384 0.004413751 0.010571579 0.07149795 -0.05125471 -0.022103254 0.022916336 0.06180676 0.037496436 0.01469071 0.016480092 0.07350206 -0.015234859 -0.0011680506 0.04223673 -0.00039078065 0.04567566 -0.034942634 0.033884533 0.017470432 0.003380997 -0.030956117 0.008456346 0.0027492966 0.0003696083 0.00573931 -0.031229714 0.028082028 0.033166353 -0.012961212 -0.009435301 -0.0054368824 -0.04077587 -0.009542835 0.02684827 0.025656112 0.020362047 -0.049009465 -0.019868754 0.14253218 0.014362059 0.0043524494 0.043112297 0.004166873 -0.056597054 -0.0033198704 -0.013882451 -0.01890738 0.002299326 -0.10585692 0.05071716 -0.06279255 -0.015384125 0.017197441 -0.018950913 0.03328511 0.053188223 -0.048165306 -0.021005463 -0.056494147 0.014281244 0.019044373 -0.021592466 0.023740074 -0.0068050623 -0.030077055 8.6397966e-05 -0.037729748 0.04379808 0.010214348 0.06353445 -0.031211298 -0.0053398726 0.01792854 0.00821824 0.02486361 -0.032843545 -0.037741605 -0.025179518 -0.035277717 -0.036600947 -0.0044368855 0.014350484 -0.005896868 -0.06984244 -0.05952462 -0.017068736 -0.020596372 -0.023397114 0.014206556 -0.0050903303 -0.005435023 -0.03086137 0.049787436 -0.054341257 -0.019559717 0.024616769 -0.008514471 0.0027553835 -0.0042325966 0.104574844 0.01386692 0.0654832 0.061997548 -0.075987704 0.011480878 0.016706346 0.054337643 0.0040222653 -0.0032330474 -0.0075301337 -0.07765241 -0.05629844 0.019750368 -0.07389402 -0.033605956 -0.0074045258 0.007042711 0.015828999 0.013188913 -0.031080358 -0.029824555 0.047255788 -0.050047163 -0.048481345 0.0042764684 -0.005609144 -0.054099105 -0.014296759 0.009849198 -0.0050009293 -0.0052742613 -0.056656502 0.007214108 0.036794096 0.006084539 0.07205965 -0.025850026 0.028296605 -0.03442251 -0.015336919 -0.0329788 0.028104939 -0.021796282 0.09764726 0.074601434 0.02022465 0.0427516 -0.005465347 0.10218021 0.08813988 -0.029852502 -0.055561908 0.11133875 0.08813651 0.016647749 0.17030075 0.1701262 -0.43043637 -0.7945442 0.005141778 -0.3011224 0.8801123 -0.097811826
g 0.05440825 0.17547968 -0.008836361 -0.04943235 0.0385728 0.054749798 -0.03598487 0.0006957115 -0.05806017 0.022985673 -0.02703265 0.058893286 0.0404874 0.0065333946 -0.05800062 -0.0032938828 0.069293365 -0.006355862 0.09038702 0.14145471 0.11447492 -0.0029144727 0.03270843 0.05010083 0.06522922 0.021155462 -0.16679047 0.06769294 -0.08793013 -0.0073851505 0.107576355 -0.025320053 0.03791039 0.036830083 -0.06250349 -0.06872427 -0.010267223 -0.019552555 0.01711996 -0.08113129 -0.042207178 0.009836142 -0.04435711 -0.034436885 0.0033732646 -0.031386014 -0.019060249 -0.01788629 0.016523149 -0.0028773954 0.022741519 0.03371324 0.0103519205 0.010247199 0.007630615 0.05131352 0.0023626394 -0.026678441 -0.0103733465 -0.048795555 -0.012866304 -0.07366233 -0.053182296 0.0062869536 -0.011409146 0.017663553 0.019768784 -0.012143991 -0.019089747 -0.053221673 0.0066583306 0.011723895 -0.01593717 -0.011433166 -0.018582586 0.03264921 0.0034766747 -0.04410163 0.03859266 -0.019653633 0.013144599 -0.01391469 0.0089192875 0.031339627 -0.035355512 -0.031155637 -0.052927796 -0.009071054 0.034224644 0.0073483023 -0.069289 -0.046101626 -0.0057675946 -0.01282747 0.015395305 0.021287955 -0.019294407 0.010353071 0.020520085 -0.03182291 0.08137052 -0.024901425 -0.13483252 0.07186013 -0.007014135 -0.0044978047 -0.008423395 0.00728033 0.066892475 -0.035448287 -0.03585938 0.041383505 0.04240089 0.019647222 0.021977516 0.08465867 0.0038179746 -0.0011913383 0.013244452 -0.025553156 -0.041044414 -0.07427107 -0.012316098 0.025008999 -0.005607142 -0.012204102 -0.06217192 -0.01920123 0.044821445 -0.01209965 0.026016999 0.038875494 0.021760646 0.0027338902 -0.013853476 -0.0049504605 0.016225172 0.0054329857 0.017465824 0.06304179 0.01577894 -0.03739544 0.044336945 0.0062648878 -0.01704188 -0.0019858482 0.040761396 0.014520163 -0.032057542 0.019154316 0.058147848 -0.013246854 0.030450499 -0.006059646 0.09178526 0.01188125 0.027242415 0.0010456298 -0.037828647 0.031472504 -0.041878346 -0.03237696 -0.0072992537 0.0070512705 -0.015584177 -0.0028324984 -0.0028648598 7.871705e-05 0.026484204 -0.010170356 -0.012388274 -0.014664269 0.012220741 0.010551944 0.01563573 0.01896981 0.048700478 -0.0020143967 0.042220347 -0.02709108 -0.015734676 -0.0031863856 -0.037201308 -0.018898526 -0.026554594 0.004113445 -0.040718347 -0.014813797 0.07056919 0.007418849 0.0481053 0.026096461 2.8986336e-05 -0.018287024 -0.0017404832 -0.049789418 -0.009655001 0.06432125 -0.038454838 0.011051052 -0.022754885 -0.04433816 0.0070421086 0.0022979246 0.008172899 -0.018081633 0.05744575 -0.015039876 -0.034188867 -0.0019300702 -0.02401485 0.018621065 -0.015097948 0.0029327746 0.014974015 -0.08250068 -0.04333128 0.005566785 0.00826826 0.010548089 -0.04181147 -0.045874063 -0.0041584973 0.0048403027 0.011240238 -0.04724892 0.060477007 0.0027786852 0.0018847815 0.13181135 -0.04658855 0.0039292723 0.021438414 -0.07008732 -0.047660984 -0.027806213 0.09588116 -0.026839508 0.067563444 0.01623438 -0.14787495 0.016508251 -0.015375858 0.020861253 0.05660826 -0.013342106 0.01154811 -0.11302382 -0.060286127 0.018388199 -0.12775145 0.0062201656 -0.029286448 -0.0019239184 -0.020928113 -0.026119791 0.0058352672 0.011946327 0.034111504 -0.07279673 -0.038018383 -0.029072048 -0.039118502 -0.05466148 0.016362559 -0.02176534 -0.023742553 -0.0006571398 -0.05105779 0.027939819 0.05980538 0.006509616 0.036561966 -0.037610438 0.018317247 0.039728504 -0.046458777 -0.04518273 -0.00647367 -0.069820166 0.013628406 0.05736056 0.011684461 0.050704762 -0.05879945 0.01826381 0.027519265 -0.048511986 0.011286843 -0.0016275092 0.01739929 -0.06209755 -0.009453157 0.119610704 -0.49013442 -0.755881 0.08680896 -0.29590172 0.9284991 -0.105081156
w 0.049769673 0.0015059258 0.0109256115 0.0038029233 -0.05516726 0.027452765 -0.0068319747 0.061822664 -0.09298809 0.04557642 -0.10334367 0.092830785 -0.04444688 0.04642156 -0.16711663 -0.017161012 0.078059874 -0.006978684 0.04322816 0.091729544 0.18955533 0.008543037 0.05752342 0.122285545 0.007968634 0.062389873 -0.07514718 0.025892831 0.0053791953 0.07118605 0.010388271 0.044987276 -0.04518879 0.037854467 -0.058062468 -0.08588105 0.041540843 -0.03722505 0.0137310475 0.039475992 0.054608922 -0.004556263 -0.109552555 -0.06257747 -0.017959422 -0.026570443 -0.04921118 0.018841809 0.03264713 0.002989816 0.03221751 0.014058886 0.011047017 0.022094252 -0.015166102 0.03608652 0.011586393 -0.010392672 0.051868334 0.0022353304 0.0018959052 -0.040981553 -0.016137999 0.031267025 -0.06698585 0.036636546 0.04814455 -0.022237977 -0.014009663 -0.062314574 -0.04552064 -0.021443548 -0.045236204 -0.018373687 -0.034059346 -0.028967084 -0.016989779 -0.008309407 0.05192202 -0.088315524 -0.0056697717 -0.08728284 0.0017496428 0.07390663 -0.030180374 -0.050954334 -0.09632163 -0.018796466 0.060078222 0.026943907 -0.10810796 -0.041236397 0.034387253 -0.0046882317 0.0086734425 -0.08715066 -0.044379484 -0.0004833486 0.056393243 -0.0025198322 0.010444431 -0.006293468 -0.10803525 0.05247402 -0.0055920146 -0.0022261587 0.0013129809 0.001598022 0.08292272 -0.030425357 -0.056588493 -0.013241585 0.0514387 0.06826304 0.07576998 0.055587612 0.039638977 0.061400924 -0.012346431 0.01607913 -0.029720124 -0.11211689 0.008563366 0.061032042 -0.014786249 0.026516704 -0.054755323 -0.039298378 0.012719549 -0.031171205 0.061631452 0.09771917 0.023310129 0.0528987 0.02259383 -0.004573721 0.020101544 -0.029914858 -0.006529033 0.065549366 0.013985089 -0.020397926 0.00071028527 0.04361274 -0.023196433 0.030632878 0.08579256 0.07834412 -0.063948855 0.012185418 0.07794164 0.0073976466 0.0919525 -0.041943584 0.07731086 0.028158823 0.035949346 -0.08248837 -0.06440916 0.050466478 -0.03684963 -0.057595745 -0.08489479 0.01798079 0.022282567 0.0026389996 -0.029036129 -0.041638043 -0.035262708 -0.0044943807 0.036411382 0.049043126 -0.016421994 -0.017143363 -0.02884772 0.08851809 -0.015364727 -0.0017623489 0.059785943 0.010087884 -0.05403309 -0.004671305 0.0033868328 -0.038182717 -0.018680427 -0.08207786 -0.023104008 0.019787798 0.011819204 0.02061434 -0.011820715 0.04427311 0.021511557 -0.013863466 0.0037760267 -0.04339829 -0.011794269 -0.019801803 -0.023088036 -0.0032249186 -0.05793442 0.008378059 -0.035183433 -0.023428062 -0.030349556 0.04612371 -0.013273524 0.044116605 -0.046702154 -0.02272111 -0.009679984 0.048170473 -0.0059914286 0.04572056 -0.014227298 -0.020666184 -0.03524481 0.03828725 -0.003326477 0.016584197 -0.023402065 0.016942782 -0.0049835593 -0.019133985 -0.0045209955 -0.03424669 0.021681953 -0.03304316 -0.013625312 0.048068628 -0.0034032818 -0.013909336 0.050292626 -0.067312635 -0.030901862 -0.031067327 0.042414937 -0.029194856 0.058070183 0.009397362 -0.094730996 0.013618366 -0.003071774 0.017368961 0.044154048 -0.023795642 -0.011398733 -0.08398506 -0.058273878 0.0061678574 -0.07430163 0.0048491806 -0.03480758 0.008314182 0.006210129 -0.065061375 -0.060624976 0.036100645 -0.038554896 -0.079456285 -0.05307387 -0.045398254 -0.05173936 -0.07328324 0.021086194 -0.031526804 -0.065904304 0.00077894574 -0.13378052 0.052193925 0.14096287 0.027451366 0.08845629 -0.052544165 0.050373256 0.050537847 -0.03595894 -0.09467033 -0.02705063 -0.12843212 0.029509068 0.08784725 0.093365304 0.061491292 -0.06447928 0.041500498 0.10791286 -0.06228904 0.026225964 0.055042095 0.012201918 0.04115661 0.07870779 0.15364318 -0.4454864 -0.8412594 0.17731 -0.28929102 0.8532601 -0.058736812
y 0.041019376 -0.118730664 -0.06700981 0.021711381 -0.002787918 0.007193225 0.024620254 -0.03740204 -0.0109810475 -0.031298477 0.040583294 0.012858958 -0.053733237 -0.07943758 -0.044508524 0.015876297 0.03254806 -0.0032652714 -0.0124470545 -0.03112687 0.058249623 -0.04042751 -0.01231443 0.06934135 0.06698237 0.015711498 -0.15632507 0.014615466 -0.039792053 0.0016275343 -0.016331416 -0.019030804 0.023037946 0.024510913 -0.07125969 -0.07017223 -0.03461077 0.0842833 -0.051079053 -0.08585477 -0.0269916 0.023614595 0.01088196 -0.029900178 -0.06698074 -0.04473535 -0.018374385 0.08082406 0.029375533 0.07894734 0.042520132 0.028305704 0.075365044 -0.017805984 0.016720043 0.027442262 -0.019317133 -0.013865662 -0.02109074 -0.120242625 -0.061459493 -0.085158356 -0.044825353 0.005110509 0.016822709 0.023177305 0.044978663 0.049203955 0.00667161 -0.034660216 -0.029919103 0.0037423233 -0.059952453 -0.02030518 -0.0573567 -0.019407207 0.011087101 0.008613661 -0.019278713 -0.010362393 0.05504804 -0.06092777 -0.010394182 0.029121637 0.002560689 -0.03671418 -0.05680406 0.003941737 -0.0018399435 1.6739326e-05 -0.046324216 -0.06291613 0.02682242 -0.0075748675 0.032891676 -0.056426886 -0.0034562664 0.019144576 0.0047366074 -0.013412266 0.041259274 0.014373398 -0.10673061 0.020733597 -0.027171489 0.041928854 0.0031204643 0.0334632 0.042903934 -0.058196 -0.010960525 0.043260973 0.01769046 0.006333193 -0.0026129088 0.02523875 0.0070323446 0.021285925 -0.02235731 0.004644677 -0.023562426 0.02801821 -0.03636844 0.027518297 -0.0347681 0.0032952903 -0.061446175 -0.025641214 0.025284873 -0.004205397 0.09359827 0.13484599 0.01735631 0.0013037822 0.0016694546 0.0335202 0.021324985 0.010238448 0.0058147227 0.07221132 0.03239372 -0.04040548 0.03164008 0.050219983 -0.03290201 -0.019861909 0.05053865 0.1307497 -0.017459763 0.019209398 0.055000253 0.0035009976 0.032895252 -0.091116406 0.08088879 0.03046906 0.031781472 -0.028376428 0.014426958 0.05281981 0.0046358085 -0.010666257 -0.06341882 0.017810034 0.015987352 0.006739413 -0.034458306 -0.008111142 -0.05439384 0.010748761 0.02411791 0.044178832 0.0301922 -0.00086292217 0.0029079332 0.07171953 -0.0008169878 0.013936522 0.047936033 -0.01705186 -0.01065595 0.01368517 -0.01885707 0.0064526196 -0.020700311 -0.06847033 0.024222437 0.018711299 0.0310834 -0.0064193024 0.02491703 -0.0055533033 0.013207043 0.004875589 0.02288785 -0.07349928 0.017457388 0.054346647 -0.02688579 -0.023204057 -0.079567105 -0.031992003 -0.0046132505 0.003861121 0.029364424 0.013508394 -0.007775596 -0.0040649786 0.0015474361 -0.00755987 0.034158066 -0.016620662 0.025701463 0.019333405 -0.014649495 -0.018295823 -0.021338195 -0.012836623 -0.0062105902 -0.025797905 -0.017704621 -0.031229487 0.0019375953 -0.014148157 0.053128954 -0.019592782 0.01897966 0.01684453 0.016638234 0.06427524 -0.021773959 -0.048314802 0.034364775 -0.054887053 -0.025763158 -0.016863441 0.08286601 -0.0284612 0.02461495 0.025284039 -0.093566105 0.027810022 0.004721216 0.013902537 0.056890078 0.0041630296 0.02057114 -0.08850244 -0.039967563 0.03400973 -0.11043442 -0.020647233 -0.091130696 0.030942248 -0.04466383 -0.020989345 -0.018812962 -0.023145603 0.017310336 -0.060923234 -0.053963423 -0.0126827005 -0.09237316 -0.08137946 0.02802126 -0.033654984 -0.08011541 -0.022419468 -0.066607766 0.044210847 0.10724955 -0.018096099 0.05246739 -0.08697933 0.08236165 0.019355288 -0.014946881 -0.04112839 -0.006330624 -0.05526697 0.028228542 0.025026659 0.028866628 0.02305211 -0.01721838 0.010137294 0.07304682 -0.07734571 -0.06506159 0.030224744 0.010781376 0.0066343113 0.15443824 0.13487177 -0.45220378 -0.7895521 0.08257409 -0.2877071 0.9198945 -0.14318343
b -0.025266498 0.01816844 0.027843943 -0.052431937 0.014128088 0.021882895 0.017416028 0.025862437 -0.012498538 -0.022266025 -0.085473806 -0.009251253 0.010488654 0.021221692 -0.09073937 0.07549638 0.15129797 0.0046373764 0.046246998 0.075201005 0.109771855 -0.008462869 -0.019845447 0.12024026 -0.00039002823 0.06647192 -0.10706486 0.1075805 -0.014481499 0.0011507977 0.027932376 -0.026295176 -0.04249594 0.08435482 -0.061110348 -0.10212542 0.04306256 0.067408204 -0.032640893 -0.061278667 -0.03484842 0.026841428 -0.03995189 -0.022757579 0.003206052 -0.03723109 0.013126697 0.0782975 0.048103835 0.047198273 0.082632914 0.027170248 0.08014556 0.03787913 0.019963875 0.038753923 -0.015425025 -0.012675419 -0.0061210217 -0.023824995 -0.034286246 -0.049409837 -0.05826512 0.012264506 0.017634198 -0.032962922 -0.032675292 0.043245673 0.05394843 0.0043951324 0.023058636 0.009080127 -0.041273087 0.017422687 -0.020281034 -0.040932126 -0.020927833 0.036976807 -0.015368686 -0.032561306 0.010233352 -0.036356565 0.025468616 0.01602906 0.020414526 -0.03677441 -0.03444933 0.011117704 0.05566583 0.015604067 -0.0743425 -0.03609274 0.021562414 -0.03161257 0.0046317815 -0.031223696 0.009182003 0.0048520644 -0.02515203 0.013367492 0.0402402 -0.0166328 -0.10139619 0.05376749 0.013235256 0.021160545 0.009630958 -0.029716527 0.05703919 -0.007961341 -0.023393795 0.022365635 0.01390305 0.009748987 0.004790799 0.032950338 -0.00052397005 0.01667011 0.017376695 -0.012561341 0.0044250046 0.029427402 -0.015695544 0.023462646 0.0007247759 -0.01471536 -0.009926942 -0.024791941 0.02156163 -0.04242507 0.07485873 0.07914048 0.039612338 0.05359893 -0.0010662407 0.011229168 0.035670962 -0.018303514 0.004386998 0.053577095 0.016734866 -0.005420688 0.017968142 -0.0006618021 -0.011466042 -0.0022470744 0.06899175 0.09918742 -0.02412667 -0.008723009 0.06222836 -0.03261935 0.05035595 -0.0016500988 0.07481399 0.017370917 0.019355629 -0.06853511 -0.033879176 0.026427647 0.008606669 -0.014924612 -0.060472168 0.00072857173 0.015633855 0.034559492 -0.02557383 -0.02612939 -0.03319557 -0.00023415576 0.022281583 0.023294473 0.034439325 -0.03560633 0.010555931 0.08920565 0.020521743 -0.03280958 0.010508468 -0.004517981 0.008228421 -0.00011167388 -0.029972121 -0.0040769964 -0.031298365 -0.10349116 0.043936033 -0.017948829 0.018319888 0.00082862907 -0.024548883 0.017002236 0.019522237 -0.011785579 -0.005350763 -0.04296553 0.007858842 -0.010691751 -0.019982692 -0.018152218 -0.047497697 0.006218111 -0.021088937 -0.042755865 0.012877346 0.006826509 0.016939543 0.006080886 0.0036607955 -0.003471735 -5.3237054e-05 0.0003054932 0.0022634715 -0.0019207911 -0.0256794 0.0059474874 -0.017991839 0.034929052 0.003068974 -0.01237104 -0.007422786 -0.030033203 0.016648063 0.012955656 0.0043826587 -0.0013253358 -0.019823398 0.009493127 -0.0027715282 0.050363787 -0.012883582 -0.028810447 0.041874677 -0.0042485427 0.008794225 -0.020111816 0.054130927 0.00881808 0.027343165 0.0109940665 -0.064659916 0.02654633 0.035945915 0.028252926 0.0355788 -0.012287449 0.02524661 -0.033187818 -0.001628156 -0.011223018 -0.0917328 -0.011281109 -0.049815822 0.0015139438 0.0019581225 -0.029771509 -0.028297413 -0.0091680875 0.0027966448 -0.020120203 -0.053651668 0.00852356 -0.022439364 -0.07021539 -0.017125163 -0.055320676 -0.07573105 0.01396505 -0.101859756 0.0128855985 0.11539601 0.026154412 0.072878696 -0.027531574 0.03623493 0.00324375 -0.038619313 -0.042689167 -0.007034551 -0.045943853 0.032330032 0.05345166 0.030892693 0.0076398617 -0.04717262 0.05627864 0.095843576 -0.020598887 -0.025137242 0.030445354 0.018463418 0.037990544 0.1351125 0.13668431 -0.38297072 -0.8372095 0.084543705 -0.25329173 0.86548954 -0.032963064
. -0.029342754 0.065676525 -0.051225696 -0.015096064 -0.024040582 0.13152716 0.065395914 0.03472309 -0.057076596 -0.13698368 -0.012748873 -0.1862877 -0.1595732 -0.012221943 -0.10019162 0.18397145 0.12508225 -0.0708092 0.14777908 0.23532236 0.014503035 0.077238426 -0.04064237 0.054029115 0.001966831 0.046476666 -0.066086546 0.12590042 0.12759455 -0.26262677 -0.09796117 -0.110072814 0.0970664 -0.00278015 0.21391997 0.05153485 -0.022456076 -0.0671827 0.04622934 0.0146924555 0.06669035 -0.001467127 -0.15246409 -0.09708319 -0.05378088 -0.0962193 -0.012328322 0.0035200422 0.0749336 -0.043475274 0.07737337 0.077091806 -0.09646328 -0.022035839 -0.030788347 -0.005572495 0.014792575 0.08818876 -0.10018183 0.02512476 0.016610716 0.037377734 -0.03874281 -0.041414727 0.06528136 0.060602814 0.024377149 0.09460185 -0.1486802 -0.0233532 -0.03210008 -0.040517304 -0.19846965 -0.0915441 -0.067744926 -0.037105262 0.07911764 -0.013261295 -0.021860603 -0.046337523 0.08929087 -0.028909035 0.0724158 -0.07819576 0.026144013 0.035996825 -0.09688183 0.050621808 -0.032807678 -0.07610778 0.032515664 0.0024465837 0.043121982 -0.07513409 0.13472974 -0.079417616 -0.07957059 -0.041642334 0.059386123 0.04911009 0.06564789 0.07587842 0.019549243 -0.03952293 -0.087872796 -0.20862503 -0.12651783 0.0011780927 0.05826623 0.02252746 0.03422742 0.047463436 0.10504621 0.03224146 0.08677286 0.095635556 -0.0956908 -0.058270987 -0.0243195 -0.06830527 0.0031716195 -0.1309373 0.04443229 0.008924941 0.023159431 -0.028179212 -0.031226642 -0.0067196186 0.010806313 0.04313978 0.085085236 0.030409468 0.015171121 0.008738063 0.028703095 0.06034808 0.032772217 -0.013121059 -0.040854536 0.06130439 0.02317591 -0.014086634 0.028311193 0.061110318 -0.10561238 0.050801244 0.07579264 0.091033325 0.030110346 0.017762333 -0.031301163 -0.008703012 0.020147327 -0.036025733 0.044044144 0.0063894214 -0.024334582 -0.04609417 -0.001324946 -0.027934073 0.017279778 -0.05265903 -0.0069704596 0.030226579 0.035595305 -0.016667442 -0.0044000973 -0.07759511 -0.056752015 0.026704548 -0.002766082 0.0016040403 0.005691001 -0.024992751 -0.016333776 0.03136315 0.023257343 -0.0027803027 0.08007817 0.00044265907 -0.07263472 -0.075750634 0.012654578 0.045394175 -0.053363614 -0.109426394 -0.10562621 -0.019917857 0.06889766 0.0030124835 0.0012069563 0.025881479 0.012598191 -0.02127698 -0.036866423 -0.11427559 0.11787538 0.020776238 -0.044937003 0.033262596 -0.08910041 -0.079052106 0.039833594 0.0030064692 0.019983824 -0.048571482 0.11662072 -0.06305341 -0.00852566 0.04064253 0.049168922 -0.026166013 0.013014595 -0.018041013 0.010550851 -0.032243617 -0.10211909 0.013855221 -0.031940073 -0.012763743 -0.047628764 0.014786072 0.042411543 -0.07919752 0.08679319 -0.07462 0.041819267 0.083231345 -0.0072869924 0.08830811 -0.04588408 -0.04774973 0.112963796 -0.011903164 -0.021570358 -0.07862108 0.14428647 0.005279969 0.03700688 -0.00040334807 -0.12567756 0.041171566 -0.036148064 0.01811753 0.09850904 -0.06244702 0.05667174 -0.09879018 -0.008262736 0.014425674 -0.13329656 -0.05352454 -0.15815751 0.021425864 -0.08948231 -0.049027007 -0.028370319 0.0014552574 -0.061047897 -0.030702703 -0.035668954 -0.051627066 -0.04841607 -0.02949556 0.042516388 -0.045483153 -0.052078456 -0.0099101635 -0.10404507 0.14320458 0.090974286 -0.06847551 0.047855813 -0.068735294 0.06391264 -0.026621878 0.009673208 0.0047419597 0.04433098 -0.04253796 -0.018377487 -0.00767686 0.011705869 -0.08384561 -0.024140574 -0.029638695 0.06335337 0.03787826 -0.026992096 -0.0036613212 -0.00015774345 0.007067053 0.22930023 0.13206182 -0.3322179 -0.9667842 -0.08382215 0.015615793 0.87524706 0.3023117
v 0.044801164 0.11988196 0.04492591 -0.020502558 -0.020837123 -0.011995129 -0.06310629 0.041357934 -0.11814056 -0.03161192 -0.050636355 0.022517376 -0.0020666039 0.012902049 -0.04948233 -0.01847645 0.07815745 -0.051377114 0.04899425 0.018140884 0.13447407 -0.053421397 -0.003555995 0.113094695 0.1307945 0.05800534 -0.23036821 0.10883994 -0.020332469 0.023039848 0.028603692 -0.026682297 0.012679262 0.05628626 -0.053115416 -0.07358029 0.030203661 0.045916554 -0.002265486 -0.035299767 -0.008377332 0.011854035 -0.04041013 -0.065347455 0.010376686 0.026576422 0.030815229 -0.009813085 -0.013898088 0.04285804 0.04083084 0.020452702 -0.07270193 0.06664123 0.011113651 0.04037366 0.010261954 0.0021069583 -0.053908814 -0.02982356 0.030226352 0.016651157 0.013117305 0.04698827 0.004229686 0.063658774 0.07185113 0.03138598 -0.009185364 -0.04226374 -0.055887748 0.046460386 -0.109071076 -0.04962314 -0.06801857 0.013539547 -0.039268002 -0.033721417 0.047513776 -0.045682844 0.040129356 -0.05717435 0.04831178 -0.0079704 0.034287512 -0.05642978 -0.016303552 -0.040442765 0.0857394 0.0013411315 -0.07601416 -0.02920502 0.031677797 -0.014832901 0.039473433 -0.06473579 0.010004893 0.013059181 0.024938513 -0.008917735 0.05615783 -0.0007352028 -0.16384031 0.060986444 -0.009101947 0.022035385 -0.009342962 0.041820724 0.039092276 -0.049430728 -0.017537672 0.026944213 0.061327133 0.012366744 0.02848035 0.073405355 -0.017075641 0.0004434904 0.02202066 -0.036933463 -0.047379863 -0.041230284 -0.02733639 0.037878368 -0.021839304 0.004273237 -0.048818003 -0.00853207 0.015069889 0.02000623 0.06102713 0.08341053 0.002831441 -0.0139394775 0.0195361 0.009145018 0.010131453 -0.023970554 0.011004961 0.068585135 -0.013292464 -0.025007151 0.0073991623 0.04457583 -0.01610828 0.018072104 0.07389784 0.07804912 -0.008199949 0.0422149 0.034099836 0.0038715466 0.048427742 -0.04550698 0.11115314 0.03696229 0.019503174 -0.02844896 -0.031694345 -0.0008865142 -0.02252206 -0.007846575 -0.016178062 0.02699997 -0.007749333 -0.013112981 -0.002369998 1.221537e-05 0.0016594692 -0.0004828813 -0.007729818 0.005986674 0.028904557 -0.025854489 0.011789677 0.06048552 -0.015142236 0.007444623 0.028242476 0.011210835 -0.023935542 0.024401458 -0.041391972 -0.035907105 0.0017967549 -0.10704504 0.033735447 -0.051144198 0.04898441 0.0089211045 0.0031122651 0.01632336 0.0056787683 0.014272621 -0.031221827 0.016901068 0.021222293 0.019239716 -0.034080945 0.023426855 -0.034841858 -0.039111607 0.0123225115 0.007471842 0.029438537 -0.032879382 -0.025495341 -0.048444882 -0.0034087845 0.0175102 0.015947476 0.003154916 -0.028939186 -0.027972423 -0.029648302 -0.0092453845 -0.010230147 -0.034423627 0.011957877 0.015889207 -0.021567656 -0.04632535 -0.049554422 0.017947935 0.015989175 0.007835872 -0.0047661476 0.031162111 0.0032915808 0.04736038 -0.03151556 0.013649104 0.043992624 -0.024009509 -0.015373634 -0.004296158 0.03355924 -0.02312233 0.05257657 0.013987365 -0.041568015 -0.0009631618 -0.00079956895 0.03736456 0.024357367 0.004647126 -0.011758573 -0.028433533 -0.080827445 0.017824804 -0.07562335 -0.007576419 0.010480676 -0.0057271994 0.02803523 0.015430366 0.03329007 -0.032541305 0.026574295 0.014902769 -0.015896307 -0.03405944 -0.017194318 -0.0315526 0.012243457 0.009850533 -0.034394056 -0.043204144 0.01698221 -0.035793353 0.04093705 -0.028954793 0.042274788 -0.046200857 -0.035445917 -0.055678103 -0.009996181 0.01375801 -0.018527374 -0.0217691 0.0839141 0.06050633 -0.010185407 0.049982112 0.039874062 0.06338325 0.044962056 -0.075849414 -0.0045996187 0.09443482 0.032001227 -0.0020937608 0.11096479 0.1493672 -0.44383162 -0.8749214 0.0050714226 -0.18002576 0.8940912 -0.042868786
, -0.014721437 0.053284943 -0.058985453 -0.022293353 0.046582475 0.10403439 0.13433756 0.023881575 -0.14584576 0.012502324 0.009126459 -0.002340693 -0.102491796 0.08831395 0.039026998 0.059419718 0.11679415 -0.014580494 0.027176926 0.08161373 0.0610459 0.0526825 -0.09827538 0.013247044 -0.026005838 0.051752847 -0.07525126 0.022596419 -0.0323376 -0.07352784 -0.01071533 -0.078112505 -0.027322775 0.12036348 -0.051677655 -0.06845833 0.016746148 0.011725292 -0.013240541 -0.037187938 0.01744978 0.004897261 -0.092496045 -0.031052278 0.021288184 -0.023730673 -0.00016042707 0.01978668 0.054755818 0.028804222 -0.065803416 0.01070147 0.01173154 0.093643345 0.015495581 0.0648363 -0.049566805 0.048473462 -0.0059689754 0.046569694 0.0070668743 -0.011732168 -0.05986326 0.0706124 0.09044629 0.02941101 -0.00028098785 0.07383849 -0.019744491 0.037299525 0.020555632 0.0333678 -0.077367924 -0.0012166816 -0.009527551 -0.054951295 -0.010302394 -0.045793217 0.027760535 -0.009604569 0.0021178322 -0.016130814 0.009848253 0.0041110297 0.024056213 -0.040721662 -0.04371498 -0.033200976 -0.0016654211 -0.003296747 -0.026694713 -0.056696087 0.013892998 0.0062576984 -0.007232541 -0.038127407 -0.0021525973 0.029248876 0.03369868 -0.031669922 0.037558198 0.015799608 -0.113317415 0.042766623 -0.020692922 -0.002600074 -0.0007619779 -0.007593925 0.07666676 -0.05710871 -0.021884657 0.050662458 0.014245061 -0.00061359274 0.0062343897 0.106031455 -0.011728677 0.032994322 0.024611084 -0.011930403 -0.0099189235 -0.046618856 -0.023370298 0.02656728 -0.012849709 -0.0022487985 -0.030809784 0.0074441712 0.018993825 0.0019382548 0.04485321 0.015790273 0.036584012 0.038202886 0.01434083 0.06276906 0.017447064 -8.377205e-05 0.0070980536 0.034772865 -0.0016702639 0.02063241 0.073044136 0.019320192 0.0019668192 0.034747735 0.09845532 0.08595976 -0.05508318 0.021714533 0.050951608 -0.03727712 0.09854203 -0.102338366 0.08194446 0.021062104 0.015606266 -0.07592254 -0.038892683 0.09005681 0.013109571 -0.0487585 -0.059786916 0.030608224 0.035399847 0.019634064 -0.03728574 -0.006715178 0.0164285 -0.01920785 0.01872366 -0.052179947 0.070037924 0.016641237 -0.022318115 0.095042884 0.07927477 -0.0056353933 0.018705916 -0.023886649 0.060071 -0.013701487 -0.024199378 -0.00718194 -0.032716505 -0.05772441 0.0641875 -0.020332286 0.04129291 -0.004295475 -0.010525622 0.018156042 0.06524725 -0.0042237537 0.024550466 -0.08609619 0.02363681 0.04447729 -0.013471615 0.02274323 -0.06338506 0.014227161 -0.022452358 0.014728676 0.001326449 0.016617503 0.039702386 0.012604062 -0.009717034 0.0015899334 -0.028863525 0.0022981933 0.0015841849 0.029425796 0.0075781913 -0.09043427 0.00020736916 0.043122616 0.017357033 -0.044407587 0.015711816 -0.012766138 0.03904638 0.020909674 -0.035118233 -0.011470512 0.01995005 0.04676598 -0.022088593 0.049902152 -0.043870192 -0.038713634 0.033676807 -0.023410328 -0.024099775 -0.044569604 0.088204406 -0.00065394887 0.036165964 -0.004228634 -0.07490439 0.020684756 0.030646 0.033177223 0.02688089 -0.087311804 0.04466839 -0.06603721 -0.004331133 -0.052116353 -0.05820099 -0.0013110122 -0.088739246 -0.041350506 -0.030574495 -0.029493833 -0.11813135 -0.041656155 -0.036116697 -0.032909438 -0.045433357 -0.046849232 -0.042138945 -0.060266156 0.06363237 -0.014739276 -0.069192335 -0.035913903 -0.09087677 0.043890107 0.09497131 -0.07642953 0.0084230695 -0.06993612 0.07062913 0.0056493105 -0.042556535 0.009229665 -0.0037547746 -0.0602273 0.06638322 -0.04746992 0.03096646 0.019619932 0.00095169124 0.08642431 0.08875263 -0.05519986 -0.006498588 -0.032816008 0.038688105 0.0238249 0.052286837 0.11032094 -0.47056106 -0.8642912 0.013488349 -0.14304401 0.83701456 0.11001636
k -0.023086892 -0.0789478 0.023820236 -0.04638647 0.062365685 -0.039628413 -0.05637106 0.05340622 -0.04866196 -0.029399296 -0.029733608 0.017448504 0.036513284 0.076787114 -0.034683794 -0.014112872 0.026804702 0.021510536 0.05425024 0.060147956 0.13622124 0.06707778 0.03896882 0.11884618 0.025603002 0.0877697 -0.020171022 0.081483245 -0.008457187 0.033510942 0.02136069 -0.072618976 0.002629267 0.05698984 -0.053286232 -0.18788552 0.024097739 0.079280026 -0.00090130843 0.028112154 0.015890753 0.013011081 -0.07243543 -0.12428613 -0.06214314 -0.006495736 -0.007956517 -0.0036877778 0.05205019 -0.049333908 0.07826166 -0.0040713116 0.0411097 0.11084511 0.02337746 0.10262457 0.03325282 -0.06889247 -0.02008479 -0.059522256 0.02015341 -0.08012675 0.033251837 0.02500595 -0.06958888 0.03383827 0.07227854 -0.011029273 0.07583827 -0.005936617 -0.027572658 -0.006998324 -0.020707635 -0.009300301 -0.047916874 3.1213349e-06 -0.060741834 0.030758306 0.022773547 -0.034732055 0.0061664744 -0.033477843 0.010407034 0.034555934 -0.02888991 -0.04757771 0.01518256 -0.067244485 0.11433055 0.015916012 -0.097273245 -0.023290953 -0.02845678 -0.040257774 -0.034668695 0.02321783 -0.01510198 -0.00557997 0.0052876617 -0.026397323 0.02622351 -0.010780724 -0.11776651 0.018005043 0.043467276 0.09920979 0.0065171295 0.019051254 0.07239158 0.006963049 -0.0227299 0.009401584 0.05692193 0.03439502 0.010744451 0.05204165 -0.015011845 -0.0043264064 -0.011170316 -0.0084757 -0.05271024 -0.05222015 -0.012200309 0.020533696 0.01455721 -0.030399892 -0.0696378 -0.036754597 0.024488613 -0.048810802 0.023434151 0.037133344 0.03309811 0.019319795 0.022565078 0.015725665 0.0312621 -0.019216783 0.037677098 0.065278865 0.026204972 -0.023778431 0.024990346 -0.01905367 -0.05386933 0.02723153 0.06918515 0.06694851 0.024332475 0.04936219 0.011154557 -0.06273339 0.0802853 0.022496387 0.12433119 0.00925735 -0.019143347 -0.070527315 -0.053499732 -0.014459262 -0.025963424 -0.0510642 -0.024344618 0.02293101 0.032640766 0.020860463 -0.02491058 -0.045285884 0.010828463 -0.002532724 -0.0093864985 -0.021090712 0.08011242 -0.031016653 0.045759328 0.015962897 -0.033224195 -0.009403458 -0.009613163 -0.017357726 0.0047921115 -0.0034630753 -0.014071866 0.033570737 -0.018392174 -0.038897935 -0.005089931 0.03061561 0.020900419 0.0046154656 0.021650711 0.0031170242 0.011644174 0.0032738661 0.010778424 -0.13367432 -0.007839619 0.010493535 0.008989355 -0.042301495 -0.09760337 0.00096149836 -0.017337685 0.024872413 0.07304464 -0.042519186 0.014769236 -0.021498334 -0.06544006 0.008046181 0.013578136 -0.009564754 -0.038265716 -0.04267909 0.029835016 -0.03504215 -0.0607443 -0.016146678 -0.015660742 -0.05456328 -0.032521475 -0.056637436 0.029752405 0.03033924 0.02110717 -0.032494836 0.02594739 -0.019087711 -0.04178676 0.0747878 -0.009164864 0.011005724 0.032333568 -0.06413573 -0.043637007 -0.022695197 0.112489365 -0.02691332 0.08815612 0.046523068 -0.1662211 0.07161211 0.00445759 0.0788792 0.05514701 -0.012530337 0.06359019 -0.074558906 -0.05551723 0.016590731 -0.18573797 -0.043311995 -0.109197825 0.046285037 -0.04527843 -0.05466421 -0.036139432 -0.01676799 0.07915927 -0.1101266 -0.043052107 -0.07095299 -0.014643097 -0.07134748 0.07913716 0.0045257653 -0.028401656 -0.09290739 -0.06817824 0.036659975 0.07360284 -0.022406073 0.0157534 0.009781256 -0.0066027557 0.02083797 -0.04464698 0.030523574 -0.004176973 -0.034270953 0.093362294 0.02631396 -0.022753185 0.037793238 -0.053959563 0.02958601 0.0881855 -0.0320511 -0.023341805 0.07515093 0.053808186 -0.042815458 0.14724523 0.14761503 -0.4695708 -0.70122784 0.15845473 -0.30611113 0.89910436 -0.102932766
- -0.009763702 0.060932763 0.15881313 0.14587949 0.042795226 -0.047242954 0.10858007 -0.09827052 0.024374733 0.013071951 -0.023405803 -0.09027491 -0.14966615 -0.011009874 -0.006973318 -0.14239018 0.025325503 -0.00047851348 0.034339704 0.15841548 0.040625174 -0.0057850815 -0.0059111877 -0.07131237 -0.020786783 0.037104677 -0.082441255 0.08545837 0.10728604 -0.006188509 0.042143777 -0.07293596 0.13274962 0.12811774 -0.07596677 -0.16159758 -0.007593532 0.009825808 0.025252672 -0.019727286 -0.018877385 0.03723498 -0.06837831 0.018433329 0.028355869 0.014018134 0.0029952908 0.06651473 -0.027870249 0.08215486 0.16951197 0.023888875 0.06823259 -0.006156304 0.018735569 0.0031341738 0.06734281 -0.027953904 -0.0017046271 0.0506856 -0.037694804 -0.12532412 -0.06706539 -0.045608755 -0.022908153 -0.024056925 0.010686996 0.051125664 0.028499234 0.03705201 0.08124728 -0.022786194 0.037502896 -0.015010422 0.073969685 0.0034229448 0.032982744 0.005836643 -0.020353176 -0.034147125 -0.05914556 0.048456162 -0.010742058 0.043659676 -0.038165096 -0.074774034 -0.053889517 -0.06068848 0.03361867 0.033078562 0.026759952 0.02425533 0.0016480009 0.0056035635 -0.06719594 -0.0030956548 -0.014894576 0.021082073 0.09720142 -0.033670988 0.042713925 0.07294612 -0.14169565 0.04861376 -0.010856535 0.036824606 0.034406066 0.054847065 0.02956912 -0.046174057 -0.021709533 0.027408473 0.023914061 0.008851606 0.011532846 0.08874896 0.010482893 0.00089244574 -0.037150573 0.0352619 -0.04017827 -0.01253938 -0.063136555 0.018520448 -0.10264977 0.057242338 -0.07391203 -0.011858137 0.04702337 0.0033695442 0.028356839 0.026840873 0.017243965 -0.005037708 0.10928305 0.048218478 0.07971012 0.017361518 0.009144035 0.14220555 -0.048888773 -0.05618666 0.08788409 0.06616349 -0.077959865 0.025886709 0.039900474 0.03737516 0.11007062 0.087010354 -0.0727485 -0.08674411 0.016937278 -0.05011714 0.04574918 -0.035938635 -0.027611036 -0.04817008 0.044351403 0.013998303 -0.047652803 0.014205447 0.036663424 0.020687686 -0.0015004452 -0.044751056 -0.011073165 -0.009136835 -0.00383196 -0.0077772383 0.02214843 0.015023247 0.07075224 -0.030264286 0.01723346 0.090458855 0.02580154 0.07328328 0.087651215 -0.03473573 -0.013527017 -0.049994387 -0.0125076 0.011733859 -0.07021112 -0.108467795 -0.024927044 -0.07150973 -0.0030436737 -0.017587548 0.027154595 0.020379396 0.025356965 -0.056272697 0.033544734 -0.099836394 -0.0008065302 0.050824217 0.009930839 -0.043128494 0.052760758 -0.03008221 0.0142446505 0.02323311 0.0597045 -0.09315765 0.043943238 -0.049113255 0.02561739 0.034078903 0.049589705 0.0031109366 0.0077803736 -0.05520854 -0.003236918 -0.007012486 -0.0077971243 -0.0013538491 -0.005772629 0.048007596 -0.03733809 -0.003452074 -0.0341183 -0.035108004 -0.0229445 0.04456509 0.0411585 0.016876383 0.02548902 0.061602492 -0.021348322 -0.004149858 -0.010755318 -0.022902263 -0.023538569 -0.043338004 0.009349698 -0.024495058 -0.005536802 -0.017860474 -0.108874395 0.013293963 -0.053361285 0.06462599 0.004292837 -0.07188139 0.06560197 -0.036142107 0.0030838563 -0.009593968 -0.06790228 -0.086256936 -0.03612303 -0.02966143 -0.06159646 0.03864666 -0.038875844 -0.008461437 0.10332321 -0.01243718 -0.061877653 0.030675372 -0.007689716 -0.03058849 0.054871652 0.08185445 0.092223704 0.02510258 -0.08121545 0.059257764 0.032385327 -0.071385555 0.08064442 -0.030277137 -0.01610394 -0.0021991937 -0.06182774 0.1598775 0.059271026 0.0019279048 -0.02955146 0.068054676 0.04292819 0.055179294 -0.09320659 -0.024407946 0.09054375 0.04432756 0.031999983 0.07981114 0.07441009 -0.060678605 0.20289621 -0.006583007 0.02369325 -0.87222767 0.23938657 -0.3328875 0.81759906 0.29882517
' 0.13046509 -0.052675653 -0.0017383064 -0.054756977 0.15554719 -0.11860537 -0.1295223 0.09563919 -0.04574067 0.037252832 -0.027083395 0.12736739 -0.07342745 -0.004248109 -0.19205302 0.06648107 0.04430283 0.27976125 -0.17292517 0.012438872 0.039366707 0.03810757 -0.0029208385 -0.07814208 0.04451024 0.20841864 -0.0906886 0.12232351 -0.056411933 0.0023646967 -0.011280183 0.09642353 0.0055913827 0.14859065 -0.074165486 -0.13087875 -0.024046395 0.15361132 0.010851152 -0.17166099 -0.072883755 0.04536999 -0.102605306 0.030422993 0.03175733 -0.104449585 0.05135913 0.06032448 0.04135995 0.14685997 0.057234928 -0.0028969122 0.018754767 -0.0013298835 0.020989893 0.07118195 -0.010137391 -0.02654801 0.041154172 -0.089810334 0.027959358 -0.12584957 -0.054902136 0.01894454 -0.022238933 0.1899095 0.18478261 0.11639098 0.12314352 0.014379325 0.034852456 -0.052382182 -0.08872463 0.010641742 0.028908981 0.013881893 0.04682486 0.06352817 0.0062890314 -0.1832529 0.06792241 -0.089336954 0.08656915 0.055902638 0.004134195 -0.18143347 -0.15977275 -0.053511623 0.0900686 0.010713235 -0.06985504 -0.058372226 -0.07841569 -0.01677043 -0.032286156 0.0773024 0.0029454094 0.03560454 0.07385377 0.05805053 -0.06244385 0.044946667 -0.015875958 0.035607316 0.024879705 -0.07335624 0.05198726 -0.060857605 0.14773333 0.014805791 -0.073416725 -0.032321833 0.019532809 0.049107086 -0.013259466 0.040006854 0.013078156 0.038612038 0.035544798 -0.031450022 0.0379904 -0.07575283 0.0042660353 0.060461573 0.019738032 -0.026060281 -0.04212061 -0.036017984 -0.029319935 -0.08964152 0.07155673 0.13969208 -0.0977985 0.004848117 0.0014830587 -0.023630057 0.103071034 0.053287953 0.09013111 -0.04655724 0.06270639 0.037521727 0.045796562 -0.08709174 -0.027585657 0.078020275 0.038085084 0.029321987 0.03997953 0.012961585 -0.053161807 -0.054674905 -0.010258076 -0.015770936 0.060447052 -0.034216486 0.016945122 -0.04869016 -0.039078522 0.097285256 0.037196487 0.030956246 0.033788867 0.015982851 0.01930722 0.026760187 -0.017091928 -0.06007193 -0.041748732 0.016746167 0.008959012 0.042899594 -0.03610792 0.009715706 -0.022547955 0.0026907255 -0.0070701037 0.013012764 0.0007154543 0.010711819 0.08312081 0.010940763 -0.026487987 -0.06682949 -0.0023132933 0.07380696 -0.0113334535 0.074770264 -0.04728734 0.027995486 0.044762213 0.02985168 -0.017941343 0.04744862 -0.043908153 -0.0442653 0.038314346 -0.07632535 0.014806369 0.05391222 0.020730367 0.04719078 0.03465222 0.05927783 -0.11332193 0.11690595 0.025372928 0.07589178 -0.1067942 -0.078587346 -0.011092279 0.02602237 -0.017236589 0.11103333 0.0018882512 -0.05202752 0.030564005 0.049802396 -0.006534808 -0.035093438 0.067404054 0.040973354 0.070025824 0.07550044 -0.055215977 -0.053536467 0.04031876 0.08363252 -0.0033854954 0.12695728 -0.17816746 0.0031186142 0.059176046 -0.009295392 -0.022895114 -0.16833998 0.045118112 -0.049628116 0.18129309 0.00897355 -0.215088 0.06632674 0.039865393 0.15131351 0.11652334 -0.13042723 -0.0024033592 -0.116375655 -0.003050367 -0.07114836 -0.21505131 0.12466688 -0.14715311 -0.061613224 -0.037937086 -0.12782252 -0.09587275 -0.057372484 -0.0003916274 -0.08087732 -0.17582056 0.07388691 -0.11510378 0.00216514 0.0132618835 -0.017463313 -0.063884385 -0.032040242 -0.10497947 0.14136082 0.11130469 -0.049452405 0.09533107 -0.10381528 0.04347564 0.021320544 -0.07648283 0.13940084 0.11599385 0.009322407 0.047306273 -0.05349978 -0.07165675 0.09497379 -0.1046468 -0.0023484472 -0.058307268 -0.08022837 0.016657894 0.10816584 0.028556298 0.037924923 0.2351818 0.29466116 -0.4299829 -0.7693057 0.115824685 -0.3482954 0.83169246 0.06651245
